
\data\
ngram 1=960
ngram 2=2436
ngram 3=2985
ngram 4=3021

\1-grams:
-99	<s>	-0.012063768
-2.8017007	I	-0.00025584854
-1.6294533	the	-0.0009480141
-2.8017007	you	-1.9830512e-06
-1.9990053	a	-7.4256966e-06
-1.8567863	in	-0.0020471337
-1.8692181	that	-0.0012960972
-3.1294956	although	-1.3251788e-12
-2.4511311	as	-1.0539279e-06
-2.2539856	this	-5.5729911e-07
-3.1310861	yes	-1.325227e-12
-2.9286242	Mr	-2.2751273e-05
-3.1294956	just	-1.3251306e-12
-2.9286242	if	-1.325227e-12
-3.1294956	my	-1.3250824e-12
-2.9909301	these	-1.9934574e-08
-2.1316693	is	-1.1026376e-06
-3.1186384	why	-3.1894524e-08
-2.3122376	it	-1.8177967e-06
-3.1294956	Madam	-7.9734328e-08
-3.0470323	therefore	-1.3250824e-12
-2.5350714	we	-2.0149078e-05
-2.9909301	no	-1.3250824e-12
-2.9286242	should	-2.16541e-06
-3.0912031	today	-3.9867825e-08
-2.3774578	by	-0.0003980163
-2.9909301	but	-3.1894525e-08
-3.0912031	what	-1.3251788e-12
-3.1186384	two	-1.3250824e-12
-3.1310861	(	-1.3251788e-12
-3.1294956	thank	-1.325227e-12
-3.1310861	please	-1.3251788e-12
-3.0912031	another	-1.3251306e-12
-3.1294956	furthermore	-1.3251788e-12
-3.1294956	however	-7.9734328e-08
-3.1310861	consequently	-1.325227e-12
-3.1310861	according	-1.3251788e-12
-3.1294956	finally	-1.3251788e-12
-3.1310861	lastly	-1.325227e-12
-3.1310861	structural	-1.3251788e-12
-3.1310861	declare	-1.3251788e-12
-2.684601	would	-0.00010266922
-3.0912031	hope	-3.1894524e-08
-3.0470323	do	-2.6578991e-08
-3.1310861	admit	-1.3251788e-12
-3.1186384	can	-1.3251306e-12
-3.1310861	am	-1.3251788e-12
-3.1294956	think	-1.3251788e-12
-3.1294956	next	-1.3250342e-12
-3.0912031	Group	-1.3251788e-12
-3.0912031	Commission	-1.3251788e-12
-3.1294956	events	-1.3251788e-12
-3.0912031	vote	-2.6578991e-08
-3.1310861	rapporteur	-1.325227e-12
-3.1310861	ever	-1.3251788e-12
-3.1310861	relevant	-1.3251788e-12
-2.684601	will	-0.00059716132
-2.3774578	have	-0.0013254708
-3.1294956	final	-1.3251788e-12
-3.1310861	moment	-1.3251788e-12
-3.1310861	addition	-1.3251306e-12
-3.1186384	area	-1.3251788e-12
-3.1310861	principle	-1.3251788e-12
-3.1310861	many	-1.3251306e-12
-1.3391701	,	-0.0032576345
-3.0470323	debate	-3.1894524e-08
-3.1186384	lack	-7.2180723e-06
-3.1310861	makes	-1.3251788e-12
-3.0912031	President	-3.9867825e-08
-3.1186384	your	-1.3251788e-12
-3.1294956	question	-1.3251306e-12
-2.8646005	amendments	-1.9934574e-08
-3.1310861	second	-1.3251788e-12
-3.1310861	findings	-1.3251788e-12
-2.8646005	there	-1.7719769e-08
-2.413132	has	-1.62356e-05
-2.5815275	are	-1.3250342e-12
-3.1294956	seems	-1.3251306e-12
-3.1310861	merely	-1.3251788e-12
-3.1186384	still	-1.3251788e-12
-3.1294956	shall	-1.325227e-12
-3.1294956	look	-1.3251306e-12
-3.1294956	see	-1.3251788e-12
-3.1310861	understand	-1.3251788e-12
-2.8017007	's	-1.3290158e-08
-2.7414678	not	-1.3251306e-12
-1.473865	of	-0.039130226
-2.7414678	Parliament	-1.677966e-06
-3.1310861	let	-1.325227e-12
-3.0912031	matter	-1.325227e-12
-1.6076527	to	-0.0017765643
-3.1186384	Funds	-1.3251788e-12
-3.1310861	resumed	-1.3251788e-12
-2.9909301	like	-0.00079639769
-3.1294956	repeat	-1.325227e-12
-3.1294956	live	-1.3251788e-12
-2.7414678	very	-1.3290158e-08
-3.1310861	terribly	-1.3251788e-12
-3.1294956	item	-1.3251788e-12
-3.1294956	decides	-1.3251788e-12
-3.1186384	increasing	-1.3251788e-12
-3.1186384	standards	-1.325227e-12
-2.8646005	be	-1.3246484e-12
-3.1310861	requested	-1.3251788e-12
-3.0470323	amendment	-3.1894524e-08
-3.1310861	ago	-1.325227e-12
-3.0912031	after	-1.325227e-12
-3.1294956	ways	-1.3251788e-12
-3.1310861	Simpson	-1.3251788e-12
-1.6765131	and	-0.00099415198
-3.1294956	important	-1.3251788e-12
-3.1310861	House	-1.3251788e-12
-3.1294956	Commissioner	-1.3251788e-12
-3.1310861	ruling	-1.3251788e-12
-3.1310861	relates	-1.3251788e-12
-3.1310861	concern	-1.3251788e-12
-3.0912031	point	-1.3251306e-12
-3.1310861	form	-1.3251788e-12
-3.1310861	absolutely	-1.3251788e-12
-3.1310861	prolongs	-1.3251788e-12
-3.1294956	pay	-5.3156659e-08
-3.1294956	accept	-1.325227e-12
-3.1294956	concerned	-1.3251788e-12
-3.1186384	European	-3.1894524e-08
-3.1294956	decision	-1.325227e-12
-3.1294956	setting	-1.3251788e-12
-3.1310861	rejected	-1.3251788e-12
-3.1294956	three	-1.3251306e-12
-3.1294956	when	-1.3251306e-12
-2.8646005	%-%	-1.3251788e-12
-3.0912031	once	-3.9867825e-08
-3.1294956	again	-1.325227e-12
-3.1310861	preferred	-1.3251788e-12
-3.0912031	proposal	-1.7719769e-08
-3.1310861	raise	-1.3251788e-12
-3.1294956	some	-1.3251306e-12
-3.1310861	initiative	-1.3251788e-12
-3.1294956	know	-1.3251788e-12
-2.413132	with	-0.00045986036
-3.1310861	pleased	-1.3251788e-12
-3.1310861	sorry	-1.325227e-12
-3.1310861	sceptical	-1.325227e-12
-2.9286242	an	-1.325227e-12
-3.1294956	session	-5.3156659e-08
-3.1310861	adjourned	-1.3251788e-12
-1.4899034	.	-0.37351792
-3.1310861	fail	-1.3251788e-12
-3.1310861	millennium	-1.3251788e-12
-3.1294956	television	-1.3251788e-12
-3.1310861	days	-1.325227e-12
-3.1294956	years	-5.3156659e-08
-3.1310861	governments	-1.325227e-12
-3.1310861	facts	-1.325227e-12
-3.1294956	Regional	-1.3251306e-12
-3.1310861	Employment	-1.325227e-12
-2.1771542	on	-0.014721409
-3.1294956	extremely	-1.3251788e-12
-3.0470323	</s>
-3.1310861	carefully	-1.325227e-12
-3.0470323	because	-1.3251788e-12
-3.1310861	Presidents	-1.3252752e-12
-3.1310861	Procedure	-1.325227e-12
-3.1310861	monitor	-1.3251788e-12
-3.1310861	debated	-1.3251788e-12
-3.1310861	legislative	-1.3251788e-12
-3.1294956	regard	-1.3251788e-12
-2.9909301	its	-1.3250824e-12
-3.1186384	whether	-5.3156659e-08
-3.1310861	last	-1.3251788e-12
-3.1310861	2000	-1.325227e-12
-3.1294956	support	-1.325227e-12
-3.0912031	take	-1.3251306e-12
-3.1294956	difficulties	-1.325227e-12
-2.0703696	for	-0.0034480414
-2.9909301	were	-1.3250824e-12
-3.1294956	responsible	-1.3251788e-12
-3.1310861	DE	-1.3251788e-12
-3.0470323	minimum	-4.3308295e-06
-3.1294956	accepted	-1.3251788e-12
-3.1310861	feeling	-1.3251788e-12
-3.1294956	may	-1.3251306e-12
-3.1294956	instead	-1.3251788e-12
-2.9286242	been	-8.8605468e-09
-3.1294956	force	-1.325227e-12
-3.1294956	enforcement	-1.325227e-12
-3.0912031	taken	-1.3250342e-12
-3.1294956	pointed	-7.9734328e-08
-3.1186384	his	-1.3250824e-12
-3.1294956	examination	-1.325227e-12
-3.1310861	greater	-1.3251788e-12
-2.282321	which	-9.126299e-05
-3.1310861	Belgium	-1.325227e-12
-3.1310861	volume	-1.3251788e-12
-3.0470323	dangerous	-4.3308295e-06
-3.1310861	unable	-1.3251788e-12
-3.1310861	view	-1.3251788e-12
-3.1310861	presenting	-1.325227e-12
-3.1294956	certain	-1.3251306e-12
-3.1310861	a)	-1.3251788e-12
-3.1310861	transportation	-1.3251788e-12
-3.1310861	writing	-1.3251788e-12
-3.1310861	precisely	-1.3251788e-12
-3.1186384	energy	-1.3251788e-12
-3.1310861	resistance	-1.3251788e-12
-2.8017007	from	-3.7884009e-05
-3.1310861	play	-1.3251788e-12
-3.1186384	harmonisation	-1.325227e-12
-3.1310861	non	-1.3251788e-12
-3.1310861	justifying	-1.325227e-12
-3.1186384	countries	-1.325227e-12
-3.1294956	Structural	-1.3251306e-12
-3.1294956	services	-1.325227e-12
-3.1310861	renewables	-1.3251788e-12
-3.1310861	might	-1.3251788e-12
-3.1294956	resources	-1.325227e-12
-3.1310861	face	-1.3251788e-12
-3.1294956	place	-1.3251788e-12
-3.1310861	infrastructures	-1.325227e-12
-2.9909301	rural	-5.6827252e-05
-3.1310861	companies	-1.325227e-12
-3.1310861	jobs	-1.325227e-12
-3.1186384	new	-3.9867825e-08
-3.1310861	programmes	-1.3251788e-12
-3.1310861	Union	-1.3251788e-12
-3.1294956	year	-1.3252752e-12
-3.1310861	few	-1.3251788e-12
-3.1294956	agenda	-1.3251788e-12
-3.1310861	version	-1.3251788e-12
-3.1186384	tabled	-1.325227e-12
-3.1310861	great	-1.3251306e-12
-3.1186384	Conference	-1.325227e-12
-3.1310861	States	-1.3251788e-12
-3.1310861	currently	-1.3251788e-12
-3.1310861	accidents	-1.3251788e-12
-3.1310861	century	-1.325227e-12
-3.1310861	requests	-1.3251788e-12
-3.1310861	ten	-1.3251788e-12
-3.1186384	other	-1.325227e-12
-3.1294956	week	-3.9867825e-08
-3.1310861	substantial	-1.3251788e-12
-3.1310861	bodies	-1.3251788e-12
-3.1310861	workers	-1.3251788e-12
-3.1310861	within	-1.3251788e-12
-3.1310861	under	-1.3251788e-12
-3.1310861	pursuant	-1.3251788e-12
-3.1294956	significance	-1.3251788e-12
-3.1310861	amounts	-1.3251788e-12
-3.1186384	where	-1.3251788e-12
-3.1294956	through	-1.3251788e-12
-3.1310861	partially	-1.325227e-12
-3.1310861	known	-1.325227e-12
-3.1310861	internationally	-1.325227e-12
-3.1310861	namely	-1.3251788e-12
-3.1294956	here	-1.325227e-12
-3.1310861	stand	-1.325227e-12
-3.1310861	below	-1.3251788e-12
-3.1310861	assistance	-1.3251788e-12
-2.8646005	also	-1.325227e-12
-3.1310861	industrial	-1.3251788e-12
-3.1310861	electronic	-1.3251788e-12
-3.1310861	renewable	-1.3251788e-12
-3.1310861	owing	-1.3251788e-12
-3.1294956	agricultural	-1.3251788e-12
-3.1294956	Council	-1.3251306e-12
-3.1310861	protect	-1.3251788e-12
-3.1310861	Friday	-1.3251788e-12
-3.1310861	Ari	-1.3251788e-12
-3.1186384	directive	-1.3251788e-12
-3.1310861	citizens	-1.3251788e-12
-3.1294956	about	-1.3251788e-12
-3.1294956	request	-1.3251788e-12
-3.1310861	17	-1.3251788e-12
-3.1310861	reform	-1.3251788e-12
-3.1186384	areas	-3.1894524e-08
-3.1310861	_th	-1.3251788e-12
-3.0912031	report	-6.3787726e-08
-3.1186384	considering	-1.3251788e-12
-3.1294956	objectives	-1.325227e-12
-2.9286242	work	-3.5438213e-08
-3.1294956	regarding	-1.3251306e-12
-3.1310861	Social	-1.3251788e-12
-3.1310861	December	-1.3251788e-12
-3.1310861	1999	-1.325227e-12
-3.0912031	ask	-6.3787726e-08
-3.1310861	firstly	-1.3251788e-12
-3.0912031	first	-1.3251306e-12
-3.1310861	hear	-1.3251788e-12
-3.1310861	rather	-1.3251788e-12
-3.1294956	'	-1.3251306e-12
-3.1310861	differ	-1.3251788e-12
-3.1310861	problems	-1.3251788e-12
-3.1186384	between	-5.3156659e-08
-3.1310861	broad	-1.3251788e-12
-3.1294956	magnificent	-1.325227e-12
-3.1294956	particular	-1.325227e-12
-3.1294956	down	-1.3251788e-12
-3.1310861	decentralisation	-1.3251788e-12
-3.1310861	competitive	-1.325227e-12
-3.1310861	sense	-1.325227e-12
-3.1294956	case	-1.3251788e-12
-3.1294956	own	-1.3251788e-12
-3.1310861	starting	-1.3251788e-12
-3.1294956	being	-1.3251306e-12
-3.1186384	committee	-1.3252752e-12
-3.1310861	Barón	-1.3251788e-12
-3.1310861	always	-1.325227e-12
-3.0912031	people	-3.9867825e-08
-3.0912031	part	-5.4135433e-06
-3.1294956	Vatanen	-1.3251788e-12
-3.1310861	spoke	-1.3251788e-12
-3.1310861	cause	-1.3251788e-12
-3.1310861	transpired	-1.3251788e-12
-3.1310861	supported	-1.3251788e-12
-3.1310861	hard	-1.3251788e-12
-3.1310861	far	-1.3251788e-12
-3.0470323	all	-3.1894524e-08
-3.1310861	introducing	-1.3251788e-12
-3.1294956	now	-1.3251788e-12
-3.1310861	20	-1.3251788e-12
-3.1310861	dawn	-1.3251788e-12
-3.1310861	legislature	-1.325227e-12
-3.1294956	votes	-1.3251788e-12
-3.1186384	requirements	-1.325227e-12
-3.1310861	PPE	-1.3251788e-12
-3.1310861	40	-1.3251788e-12
-3.1310861	comes	-1.3251788e-12
-3.1310861	certificates	-1.3251788e-12
-3.1310861	against	-1.325227e-12
-3.1294956	use	-7.9734328e-08
-3.1310861	process	-1.325227e-12
-3.1310861	unknown	-1.325227e-12
-3.1310861	EC	-1.3251306e-12
-3.1310861	adequate	-1.3251788e-12
-3.1310861	deeply	-1.3251788e-12
-3.1310861	Austria	-1.325227e-12
-3.1310861	inland	-1.3251788e-12
-3.1310861	Tourism	-1.3251788e-12
-3.1310861	CEN	-1.325227e-12
-3.1310861	changes	-1.3251788e-12
-3.1310861	exodus	-1.3251788e-12
-3.0912031	into	-1.3250824e-12
-3.1310861	environment	-1.325227e-12
-3.1310861	administrative	-1.3251788e-12
-3.1310861	month	-1.325227e-12
-3.1310861	substance	-1.3251788e-12
-3.1310861	current	-1.3251788e-12
-3.1310861	during	-1.325227e-12
-3.0912031	then	-1.3250824e-12
-3.1310861	;	-1.3251788e-12
-3.1310861	Sri	-1.3251788e-12
-3.1310861	adhere	-1.3251788e-12
-3.1310861	easier	-1.325227e-12
-3.1310861	resolve	-1.325227e-12
-3.1294956	meeting	-1.3251306e-12
-3.1310861	cooperate	-1.325227e-12
-3.0912031	programme	-3.9867825e-08
-3.1310861	negotiations	-1.3251788e-12
-3.1310861	EU	-1.3251788e-12
-3.1310861	amending	-1.3251788e-12
-3.1310861	)	-1.325227e-12
-3.1294956	them	-1.3251788e-12
-3.1294956	cooperation	-7.9734328e-08
-3.1186384	specific	-1.3251788e-12
-3.1310861	funds	-1.3251788e-12
-3.1186384	who	-1.3251788e-12
-3.1310861	less	-1.3251788e-12
-3.1310861	accordance	-1.3251788e-12
-3.1310861	affected	-1.3251788e-12
-3.1294956	such	-1.3251788e-12
-3.1186384	policy	-1.325227e-12
-3.1310861	functional	-1.325227e-12
-3.1310861	any	-1.3251788e-12
-3.1310861	say	-1.3251788e-12
-3.1310861	briefly	-1.3251788e-12
-3.1310861	address	-1.325227e-12
-3.1310861	draw	-1.3251788e-12
-3.1310861	advice	-1.3251788e-12
-3.1310861	sufficient	-1.325227e-12
-3.1310861	equal	-1.3251788e-12
-3.1310861	appropriate	-1.325227e-12
-3.0470323	more	-1.3251306e-12
-3.1186384	clear	-1.3251788e-12
-3.1310861	cost	-1.325227e-12
-3.1294956	prepared	-7.9734328e-08
-2.8646005	out	-3.5438213e-08
-3.1310861	comment	-1.3251788e-12
-3.1310861	wish	-1.3251788e-12
-3.1310861	congratulate	-1.325227e-12
-3.1294956	towards	-1.3251306e-12
-3.1310861	emphasised	-1.3251788e-12
-3.0912031	rules	-1.3251788e-12
-3.1310861	comitology	-1.3251788e-12
-3.1310861	confused	-1.325227e-12
-3.1310861	provided	-1.3251788e-12
-3.1310861	explain	-1.3251788e-12
-3.1310861	Barents	-1.3251788e-12
-3.1310861	Vice	-1.3251788e-12
-3.1294956	draft	-1.3251306e-12
-3.1310861	everything	-1.3251788e-12
-3.1310861	tanks	-1.325227e-12
-3.1310861	arms	-1.3251788e-12
-3.1294956	embargo	-1.3251788e-12
-3.1310861	Tuesday	-1.325227e-12
-3.1310861	ratify	-1.3251788e-12
-3.1310861	challenges	-1.3251788e-12
-3.1294956	lower	-1.3251306e-12
-3.1294956	account	-7.9734328e-08
-3.0470323	safety	-2.6578991e-08
-3.1310861	behalf	-1.3251788e-12
-3.0470323	?	-0.0004064558
-3.1186384	attention	-7.2180723e-06
-3.1310861	foggy	-1.3251788e-12
-3.1310861	Koch	-1.3251788e-12
-3.1310861	situation	-1.3251306e-12
-3.1310861	texts	-1.325227e-12
-3.1294956	national	-1.3251306e-12
-3.1310861	commenting	-1.3251788e-12
-3.1310861	elements	-1.3251788e-12
-2.9286242	their	-2.2782182e-08
-3.1310861	specifically	-1.3251788e-12
-3.1310861	1	-1.325227e-12
-3.1294956	both	-1.3251788e-12
-3.1310861	happy	-1.3251788e-12
-3.1294956	fact	-1.3251788e-12
-3.1310861	pleasant	-1.3251788e-12
-3.1310861	seen	-1.325227e-12
-3.1310861	aware	-1.3251788e-12
-3.1294956	suggested	-1.3251788e-12
-3.1310861	speak	-1.3251788e-12
-3.1186384	period	-1.3251788e-12
-3.1310861	bomb	-1.3251788e-12
-3.1294956	reasons	-1.3251306e-12
-3.1310861	natural	-1.3251788e-12
-3.1310861	tell	-1.3251788e-12
-3.1310861	hasten	-1.3251788e-12
-3.1310861	going	-1.3251788e-12
-3.1310861	either	-1.3251788e-12
-3.1310861	sign	-1.3251788e-12
-3.1310861	wishes	-1.3251788e-12
-3.1310861	laughter	-1.3251788e-12
-3.1186384	coordination	-1.3251788e-12
-3.1310861	experts	-1.3251788e-12
-3.1310861	legal	-1.3251788e-12
-3.1310861	safer	-1.325227e-12
-3.1186384	they	-1.3251788e-12
-3.1310861	low	-1.3251788e-12
-3.1294956	number	-7.9734328e-08
-3.1310861	bit	-1.3251788e-12
-3.1310861	light	-1.325227e-12
-3.1310861	manner	-1.3251788e-12
-3.1294956	supplements	-1.3251306e-12
-3.1186384	position	-1.3251788e-12
-3.0912031	transport	-3.1894524e-08
-2.9286242	us	-1.3251306e-12
-3.1310861	Finland	-1.325227e-12
-3.1310861	shown	-1.3251788e-12
-3.1310861	different	-1.3251788e-12
-3.1310861	Italy	-1.3251788e-12
-3.1310861	districts	-1.325227e-12
-3.1310861	principles	-1.3251788e-12
-3.1310861	how	-1.3251788e-12
-3.1294956	rail	-1.3251306e-12
-3.1310861	conclusions	-1.325227e-12
-3.1294956	way	-1.3251788e-12
-3.1310861	better	-1.3251788e-12
-3.1294956	development	-1.3251788e-12
-3.1310861	examined	-1.3251788e-12
-3.1310861	enjoyed	-1.3251788e-12
-3.1294956	give	-1.325227e-12
-3.1310861	majority	-1.3251788e-12
-3.1310861	express	-1.3251788e-12
-3.1294956	ensures	-7.9734328e-08
-3.1310861	institutions	-1.3251788e-12
-3.1294956	Fund	-1.325227e-12
-3.1294956	funding	-1.3251788e-12
-3.1310861	2001	-1.325227e-12
-3.1310861	her	-1.3251788e-12
-3.1186384	present	-1.325227e-12
-3.1310861	kept	-1.3251788e-12
-3.1310861	statement	-1.3251788e-12
-3.1294956	common	-1.325227e-12
-3.1310861	cases	-1.3251788e-12
-3.1294956	temperatures	-1.3251788e-12
-3.0912031	up	-1.3251306e-12
-3.1310861	dreadful	-1.325227e-12
-3.1310861	matched	-1.3251788e-12
-3.1294956	made	-1.325227e-12
-3.1310861	proceed	-1.3251788e-12
-3.1310861	urging	-1.3251788e-12
-3.1294956	legislation	-1.3252752e-12
-3.1294956	find	-1.3251306e-12
-3.1310861	simple	-1.3251788e-12
-3.1294956	used	-1.3251306e-12
-3.1310861	reservations	-1.325227e-12
-3.1310861	serve	-1.3251788e-12
-3.1294956	tankers	-1.3251306e-12
-3.1310861	monies	-1.3251788e-12
-3.1310861	rejection	-1.3251788e-12
-3.1310861	represent	-1.3251788e-12
-3.1310861	festive	-1.3251788e-12
-3.1310861	months	-1.3251788e-12
-3.1310861	told	-1.3251788e-12
-3.1310861	shores	-1.3251788e-12
-3.1310861	doing	-1.325227e-12
-3.1310861	sadly	-1.3251788e-12
-3.1310861	referred	-1.3251788e-12
-3.1310861	representing	-1.3251788e-12
-3.1186384	positive	-1.3251788e-12
-3.1310861	Crespo	-1.3251788e-12
-3.1310861	Russia	-1.3251788e-12
-3.1294956	possible	-1.3251788e-12
-3.1310861	unquestionably	-1.3251788e-12
-3.1310861	without	-1.3251788e-12
-3.1294956	tomorrow	-1.3251788e-12
-3.1310861	Community	-1.3251788e-12
-3.1310861	relating	-1.3251788e-12
-3.1310861	word	-1.325227e-12
-3.1294956	recent	-1.3251306e-12
-3.1310861	governing	-1.3251788e-12
-3.1294956	issue	-1.325227e-12
-3.1310861	dreaded	-1.3251788e-12
-3.1310861	bug	-1.3251788e-12
-3.1310861	materialise	-1.325227e-12
-3.1310861	failed	-1.3251788e-12
-3.1310861	lot	-1.3251788e-12
-3.1310861	thus	-1.325227e-12
-3.1310861	suffered	-1.3251788e-12
-3.1310861	channels	-1.3251788e-12
-3.1310861	explosions	-1.325227e-12
-3.1310861	series	-1.3251788e-12
-3.1186384	carrying	-1.325227e-12
-3.1310861	disasters	-1.3251788e-12
-3.1310861	truly	-1.3251788e-12
-3.1294956	ourselves	-1.3251788e-12
-3.1310861	subject	-1.3251788e-12
-3.1310861	held	-1.3251788e-12
-3.1310861	introduce	-1.3251788e-12
-3.1310861	endorsed	-1.3251788e-12
-3.1294956	well	-5.3156659e-08
-2.9286242	-	-1.3251306e-12
-3.1310861	yet	-1.3251788e-12
-3.0470323	our	-2.6578991e-08
-3.1310861	removed	-1.325227e-12
-3.1294956	off	-7.9734328e-08
-3.1310861	propose	-1.325227e-12
-3.1310861	times	-1.3251788e-12
-3.1310861	correct	-1.325227e-12
-3.1310861	continue	-1.3251788e-12
-3.1294956	infrastructure	-1.3251788e-12
-3.1310861	ours	-1.325227e-12
-3.1294956	procedure	-7.9734328e-08
-3.1310861	necessary	-1.3251788e-12
-3.1310861	indicates	-1.3251788e-12
-3.1294956	course	-1.3251788e-12
-3.1294956	she	-1.3251306e-12
-3.1310861	require	-1.3251788e-12
-3.1310861	value	-1.3251788e-12
-3.1310861	message	-1.3251306e-12
-3.1310861	useful	-1.3251788e-12
-3.1310861	consideration	-1.3251788e-12
-3.1310861	inform	-1.3251788e-12
-3.1294956	increased	-1.3251306e-12
-3.1294956	delay	-1.325227e-12
-3.1310861	sector	-1.3251788e-12
-3.1310861	amend	-1.325227e-12
-3.0912031	action	-1.3251306e-12
-3.1310861	multi	-1.3251788e-12
-3.1310861	press	-1.325227e-12
-3.1294956	group	-1.3251788e-12
-3.1310861	Germany	-1.325227e-12
-3.1310861	State	-1.3251788e-12
-3.1310861	Health	-1.325227e-12
-3.1294956	one	-1.3251788e-12
-3.1310861	instructions	-1.325227e-12
-2.8646005	so	-0.00025399029
-3.1310861	maintained	-1.3251788e-12
-3.1310861	means	-1.3251788e-12
-3.1310861	killings	-1.3251788e-12
-3.1310861	Lanka	-1.325227e-12
-3.1310861	Evans	-1.3251788e-12
-3.1310861	intrinsically	-1.3251788e-12
-3.1310861	said	-1.3251788e-12
-3.1310861	comments	-1.3251788e-12
-3.1310861	feel	-1.3251788e-12
-3.1310861	type	-1.3251788e-12
-3.1310861	entirely	-1.3251788e-12
-3.1310861	agrees	-1.325227e-12
-3.1294956	set	-1.3251788e-12
-3.1294956	considerably	-1.3251788e-12
-3.1310861	concluded	-1.325227e-12
-3.1310861	reached	-1.3251788e-12
-3.1310861	mentioned	-1.3251788e-12
-3.1294956	research	-1.3251788e-12
-3.1310861	50	-1.3251788e-12
-3.1294956	correctly	-1.3251788e-12
-3.1294956	Rule	-1.3251306e-12
-3.1310861	143	-1.3251788e-12
-3.1310861	concerning	-1.3251788e-12
-3.1294956	over	-1.3251306e-12
-3.1310861	inadmissibility	-1.325227e-12
-3.1294956	something	-7.9734328e-08
-3.1186384	come	-1.3251788e-12
-3.1294956	end	-1.3251788e-12
-3.1310861	Thursday	-1.325227e-12
-3.1294956	diversity	-1.3251788e-12
-3.1294956	technical	-1.3251788e-12
-3.1310861	unnecessary	-1.3251788e-12
-3.1186384	adopted	-1.3251788e-12
-3.1310861	proposed	-1.3251788e-12
-3.1310861	laid	-1.3251788e-12
-3.1310861	modest	-1.3251788e-12
-3.1310861	never	-1.3251788e-12
-3.1310861	longer	-1.3251788e-12
-3.1310861	seasonal	-1.325227e-12
-3.1310861	packaging	-1.3251788e-12
-3.1294956	:	-1.3251306e-12
-3.1310861	sums	-1.325227e-12
-3.1310861	basis	-1.3251788e-12
-3.1310861	Sea	-1.325227e-12
-3.1310861	objective	-1.325227e-12
-3.1310861	cannot	-1.3251788e-12
-3.1310861	member	-1.3251788e-12
-3.1310861	obstacle	-1.3251788e-12
-3.1310861	fully	-1.3251788e-12
-3.1310861	ensure	-1.3251788e-12
-3.1310861	imagine	-1.3251788e-12
-3.1310861	lacks	-1.3251788e-12
-3.1186384	only	-1.3251788e-12
-3.1310861	examine	-1.3251788e-12
-3.1310861	letter	-1.3251788e-12
-3.1310861	drawn	-1.3251788e-12
-3.1310861	date	-1.325227e-12
-3.1310861	most	-1.3251788e-12
-3.1310861	hoc	-1.3251788e-12
-3.1294956	make	-5.3156659e-08
-3.1310861	20ºC	-1.3251788e-12
-3.1310861	Amendments	-1.3251788e-12
-3.1294956	put	-1.3251306e-12
-3.1310861	expressed	-1.3251788e-12
-3.1310861	resolutions	-1.3251788e-12
-3.1310861	terrible	-1.3251788e-12
-3.1310861	disgraceful	-1.3251788e-12
-3.1310861	transitional	-1.3251788e-12
-3.1310861	educated	-1.3251788e-12
-3.1310861	Prodi	-1.3251788e-12
-3.1310861	public	-1.3251788e-12
-3.1310861	basic	-1.3251788e-12
-3.1310861	compliment	-1.3251788e-12
-3.1310861	offices	-1.3251788e-12
-3.1310861	indeed	-1.3251788e-12
-3.1310861	country	-1.3251788e-12
-3.1294956	four	-1.3251306e-12
-3.1310861	get	-1.3251788e-12
-3.1310861	liked	-1.3251788e-12
-3.1294956	those	-1.3251788e-12
-3.1310861	remember	-1.3251788e-12
-3.1310861	degree	-1.3251788e-12
-3.1310861	Dutch	-1.3251788e-12
-3.1310861	obtaining	-1.3251788e-12
-3.1294956	working	-1.3251306e-12
-3.1310861	upon	-1.325227e-12
-3.1310861	October	-1.3251788e-12
-3.1310861	establishment	-1.3251788e-12
-3.1310861	channel	-1.3251788e-12
-3.1310861	deficiencies	-1.3251788e-12
-3.1310861	Safety	-1.3251788e-12
-3.1310861	received	-1.3251788e-12
-3.1294956	Committee	-1.3251306e-12
-3.1310861	since	-1.3251788e-12
-3.1310861	Policy	-1.325227e-12
-3.1310861	1998	-1.325227e-12
-3.1294956	January	-1.3251306e-12
-3.1310861	deal	-1.3251788e-12
-3.1310861	time	-1.325227e-12
-3.1310861	fire	-1.3251788e-12
-3.1310861	applicable	-1.325227e-12
-3.1294956	flexibility	-1.3251788e-12
-3.1310861	cold	-1.3251788e-12
-3.1310861	somewhat	-1.3251788e-12
-3.1310861	pass	-1.3251788e-12
-3.1294956	degrees	-7.9734328e-08
-3.1310861	asking	-1.3251788e-12
-2.9909301	at	-2.2782182e-08
-3.1310861	properly	-1.3251788e-12
-3.1310861	1st	-1.3251788e-12
-3.1310861	conclude	-1.3251788e-12
-3.1310861	information	-1.3251788e-12
-3.1294956	opinion	-1.3251306e-12
-3.1310861	discontent	-1.3251788e-12
-3.1310861	originated	-1.3251788e-12
-3.1310861	refusing	-1.3251788e-12
-3.1310861	state	-1.3251788e-12
-3.1310861	renew	-1.3251788e-12
-3.1294956	Indonesia	-1.3251788e-12
-3.1310861	past	-1.325227e-12
-3.1310861	vast	-1.3251788e-12
-3.1310861	b)	-1.3251788e-12
-3.1294956	road	-1.3251306e-12
-3.1310861	strictly	-1.3251788e-12
-3.1310861	verification	-1.3251788e-12
-3.1310861	intended	-1.3251788e-12
-3.1310861	relate	-1.3251788e-12
-3.1310861	organisations	-1.325227e-12
-3.1310861	simply	-1.3251788e-12
-3.1294956	was	-1.3251306e-12
-3.1310861	13rd	-1.3251788e-12
-3.1310861	110	-1.3251788e-12
-3.1310861	Rules	-1.3251788e-12
-3.1310861	powerful	-1.3251788e-12
-3.1294956	retained	-1.3251788e-12
-3.1310861	frost	-1.3251788e-12
-3.1310861	Monday	-1.325227e-12
-3.1310861	Party	-1.3251788e-12
-3.1310861	keen	-1.3251788e-12
-3.1294956	Socialists	-1.3251788e-12
-3.1310861	ready	-1.3251788e-12
-3.1310861	%-	-1.3251788e-12
-3.1310861	included	-1.3251788e-12
-3.1310861	strategic	-1.3251788e-12
-3.1310861	five	-1.3251788e-12
-3.1310861	brief	-1.3251788e-12
-3.1310861	accurate	-1.325227e-12
-3.1310861	example	-1.3251788e-12
-3.1310861	outside	-1.3251788e-12
-3.1310861	corroborate	-1.325227e-12
-3.1310861	decisions	-1.3251788e-12
-3.1310861	elsewhere	-1.3251788e-12
-3.1310861	differentiating	-1.3251788e-12
-3.1310861	belief	-1.3251788e-12
-3.1310861	dilemma	-1.325227e-12
-3.1310861	cargo	-1.3251788e-12
-3.1310861	improving	-1.3251788e-12
-3.1310861	agriculture	-1.325227e-12
-3.1310861	opening	-1.3251788e-12
-3.1310861	grateful	-1.3251788e-12
-3.1310861	clarify	-1.3251788e-12
-3.1310861	164	-1.3251788e-12
-3.1294956	already	-1.325227e-12
-3.1310861	Japan	-1.3251788e-12
-3.1310861	agreement	-1.3251788e-12
-3.1310861	commitment	-1.3251788e-12
-3.1310861	reminded	-1.3251788e-12
-3.1294956	need	-5.3156659e-08
-3.1310861	annual	-1.325227e-12
-3.0912031	Member	-3.9867825e-08
-3.1310861	plan	-1.325227e-12
-3.1310861	planning	-1.3251788e-12
-3.1294956	agreed	-1.3251788e-12
-3.1294956	employment	-1.3251788e-12
-3.1310861	undeveloped	-1.3251788e-12
-3.1310861	ripple	-1.3251788e-12
-3.1310861	large	-1.3251788e-12
-3.1310861	sections	-1.3251788e-12
-3.1310861	Socialist	-1.3251788e-12
-3.1310861	addressed	-1.325227e-12
-3.1310861	Sweden	-1.325227e-12
-3.1310861	Members	-1.3251788e-12
-3.1310861	several	-1.3251788e-12
-3.0912031	Cohesion	-3.9867825e-08
-3.1310861	oral	-1.3251788e-12
-3.1310861	relatively	-1.3251788e-12
-3.1310861	submitted	-1.325227e-12
-3.1310861	six	-1.3251788e-12
-3.1294956	Directive	-1.3251306e-12
-3.1310861	scant	-1.3251788e-12
-3.1310861	roads	-1.3251788e-12
-3.1310861	positions	-1.3251788e-12
-3.1310861	risks	-1.325227e-12
-3.1310861	economic	-1.3251788e-12
-3.1310861	particularly	-1.3251788e-12
-3.1310861	tide	-1.3251788e-12
-3.1310861	generated	-1.3251788e-12
-3.1310861	failure	-1.3251788e-12
-3.1310861	Seattle	-1.3251788e-12
-3.1310861	166	-1.3251788e-12
-3.1310861	7	-1.3251788e-12
-3.1310861	abstentions	-1.3251788e-12
-3.1294956	much	-1.325227e-12
-3.1310861	Hänsch	-1.325227e-12
-3.1310861	Cox	-1.325227e-12
-3.1310861	did	-1.3251788e-12
-3.1310861	explanation	-1.3251788e-12
-3.1310861	wording	-1.3251788e-12
-3.1310861	effects	-1.3251788e-12
-3.1310861	Nos	-1.3251788e-12
-3.1310861	Minutes	-1.325227e-12
-3.1310861	implement	-1.3251788e-12
-3.1310861	impose	-1.3251788e-12
-3.1310861	obliged	-1.3251788e-12
-3.1310861	content	-1.3251788e-12
-3.1310861	giving	-1.3251788e-12
-3.1310861	implemented	-1.3251788e-12
-3.1310861	94/55	-1.3251788e-12
-3.1294956	entry	-7.9734328e-08
-3.1310861	clause	-1.3251788e-12
-3.1310861	95/35	-1.3251788e-12
-3.1310861	subsequently	-1.3251788e-12
-3.1310861	lament	-1.3251788e-12
-3.1310861	amongst	-1.3251788e-12
-3.1310861	exceptionally	-1.3251788e-12
-3.1310861	forward	-1.3251788e-12
-3.1310861	reading	-1.325227e-12
-3.1310861	lorries	-1.3251788e-12
-3.1310861	carried	-1.3251788e-12
-3.1310861	proved	-1.325227e-12
-3.1310861	nonetheless	-1.3251788e-12
-3.1310861	secondly	-1.325227e-12
-3.1310861	advisers	-1.3251788e-12
-3.1310861	aptitude	-1.3251788e-12
-3.1310861	examinations	-1.325227e-12
-3.1310861	transparency	-1.3251788e-12
-3.1186384	or	-1.3251788e-12
-3.1310861	occurred	-1.3251788e-12
-3.1310861	Netherlands	-1.325227e-12
-3.1294956	goods	-1.325227e-12
-3.1310861	ad	-1.3251788e-12
-3.1310861	continued	-1.3251788e-12
-3.1310861	enacting	-1.3251788e-12
-3.1310861	drive	-1.3251788e-12
-3.1294956	Europe	-1.3251306e-12
-3.1310861	defined	-1.3251788e-12
-3.1310861	regulatory	-1.3251788e-12
-3.1310861	conditions	-1.3251788e-12
-3.1310861	really	-1.3251788e-12
-3.1310861	constructed	-1.325227e-12
-3.1310861	pulled	-1.3251788e-12
-3.1310861	quarters	-1.3251788e-12
-3.1310861	ports	-1.3251788e-12
-3.1310861	locating	-1.3251788e-12
-3.1310861	%	-1.3251788e-12
-3.1310861	containers	-1.3251788e-12
-3.1310861	delivered	-1.3251788e-12
-3.1310861	shipment	-1.325227e-12
-3.1310861	importance	-1.3251788e-12
-3.1310861	passing	-1.3251788e-12
-3.1310861	entails	-1.325227e-12
-3.1310861	kinds	-1.3251788e-12
-3.1310861	employees	-1.325227e-12
-3.1310861	social	-1.3251788e-12
-3.1310861	had	-1.3251788e-12
-3.1294956	/	-7.9734328e-08
-3.1310861	seem	-1.3251788e-12
-3.1310861	approximation	-1.3251788e-12
-3.1310861	sufficiently	-1.3251788e-12
-3.1310861	advise	-1.3251788e-12
-3.1310861	organisation	-1.3251788e-12
-3.1310861	kind	-1.325227e-12
-3.1310861	small	-1.3251788e-12
-3.1310861	uniform	-1.325227e-12
-3.1310861	want	-1.3251788e-12
-3.1310861	modules	-1.3251788e-12
-3.1310861	established	-1.325227e-12
-3.1310861	reports	-1.3251788e-12
-3.1310861	excellent	-1.3251788e-12
-3.1310861	though	-1.3251788e-12
-3.1310861	Wales	-1.3251788e-12
-3.1310861	priority	-1.3251788e-12
-3.1310861	concerns	-1.3251788e-12
-3.1310861	population	-1.3251788e-12
-3.1310861	believe	-1.3251788e-12
-3.1310861	deadlines	-1.325227e-12
-3.1310861	damaging	-1.325227e-12
-3.1310861	having	-1.3251788e-12
-3.1310861	regions	-1.3251788e-12
-3.1294956	efforts	-1.3251306e-12
-3.1310861	Swoboda	-1.3251788e-12
-3.1294956	provisions	-1.3251788e-12
-3.1310861	waterway	-1.325227e-12
-3.1310861	together	-1.325227e-12
-3.1310861	Transport	-1.325227e-12
-3.1310861	granted	-1.3251788e-12
-3.1310861	types	-1.3251788e-12
-3.1310861	12	-1.3251788e-12
-3.1310861	p.m.	-1.325227e-12
-3.1310861	laws	-1.3251788e-12
-3.1310861	until	-1.3251788e-12
-3.1310861	completes	-1.3251788e-12
-3.1310861	Economic	-1.3251788e-12
-3.1310861	uncertainty	-1.325227e-12
-3.1310861	postponing	-1.3251788e-12
-3.1310861	deletes	-1.3251788e-12
-3.1310861	consistency	-1.3251788e-12
-3.1310861	lays	-1.3251788e-12
-3.1310861	procedures	-1.325227e-12
-3.1310861	stringent	-1.3251788e-12
-3.1186384	regulations	-5.3156659e-08
-3.1310861	local	-1.3251788e-12
-3.1310861	unanimously	-1.3251788e-12
-3.1310861	amended	-1.3251788e-12
-3.1310861	service	-1.3251788e-12
-3.1310861	1997	-1.325227e-12
-3.1310861	granting	-1.3251788e-12
-3.1310861	ratings	-1.325227e-12
-3.1310861	Mediterranean	-1.325227e-12
-3.1310861	Lapland	-1.3251788e-12
-3.1310861	fall	-1.3251788e-12
-3.1294956	than	-1.3251788e-12
-3.1310861	certainty	-1.3251788e-12
-3.1310861	good	-1.3251788e-12
-3.1310861	proper	-1.3251788e-12
-3.1310861	third	-1.3251788e-12
-3.1310861	prerequisites	-1.3251788e-12
-3.1310861	materials	-1.325227e-12
-3.1310861	matters	-1.3251788e-12
-3.1310861	stage	-1.3251788e-12
-3.1310861	transparent	-1.325227e-12
-3.1310861	incomes	-1.325227e-12
-3.1310861	allow	-1.3251788e-12
-3.1310861	incorporate	-1.3251788e-12
-3.1310861	demonstrate	-1.3251788e-12
-3.1310861	zero	-1.3251788e-12
-3.1294956	activity	-1.3251306e-12
-3.1310861	speed	-1.3251788e-12
-3.1310861	despite	-1.3251788e-12
-3.1310861	deadline	-1.325227e-12
-3.1310861	same	-1.3251788e-12
-3.1310861	faces	-1.325227e-12
-3.1310861	text	-1.3251788e-12
-3.1310861	annexes	-1.325227e-12
-3.1310861	Development	-1.3251788e-12
-3.1310861	broaden	-1.3251788e-12
-3.1310861	spent	-1.3251788e-12
-3.1310861	success	-1.3251788e-12
-3.1310861	government	-1.325227e-12
-3.1310861	recognition	-1.3251788e-12
-3.1310861	projects	-1.325227e-12
-3.1310861	universities	-1.325227e-12
-3.1310861	colleges	-1.3251788e-12
-3.1310861	higher	-1.3251788e-12
-3.1310861	remain	-1.3251788e-12
-3.1310861	home	-1.3251788e-12
-3.1310861	education	-1.3251788e-12
-3.1310861	evening	-1.3251788e-12
-3.1310861	consistent	-1.3251788e-12
-3.1310861	commerce	-1.325227e-12
-3.1310861	generally	-1.3251788e-12
-3.1310861	growing	-1.3251788e-12
-3.1310861	Internet	-1.325227e-12
-3.1310861	compensated	-1.3251788e-12
-3.1310861	2	-1.3251788e-12
-3.1310861	Affairs	-1.3251788e-12
-3.1310861	offer	-1.3251788e-12
-3.1310861	seeking	-1.3251788e-12
-3.1310861	maintaining	-1.3251788e-12
-3.1310861	given	-1.3251788e-12
-3.1310861	almost	-1.3251788e-12
-3.1310861	taking	-1.3251788e-12
-3.1310861	various	-1.3251788e-12
-3.1310861	sources	-1.3251788e-12
-3.1310861	income	-1.325227e-12
-3.1310861	society	-1.325227e-12
-3.1310861	networks	-1.3251788e-12
-3.1310861	level	-1.3251788e-12
-3.1310861	exacerbates	-1.3251788e-12
-3.1310861	creation	-1.3251788e-12
-3.1310861	fifths	-1.3251788e-12
-3.1310861	territory	-1.3251788e-12
-3.1310861	farm	-1.3251788e-12
-3.1310861	21st	-1.3251788e-12
-3.1310861	activities	-1.325227e-12

\2-grams:
-1.6146045	<s> I	-0.0099629309
-1.6121157	<s> the	-3.4439092e-06
-2.8137634	<s> you	-1.0786603e-08
-2.0110689	<s> a	-1.0786603e-08
-1.8685981	<s> in	-1.0786603e-08
-1.8812818	<s> that	-1.0786603e-08
-3.1415593	<s> although	-1.0786603e-08
-2.4631949	<s> as	-1.0786603e-08
-2.2333838	<s> this	-4.4248063e-06
-3.1431499	<s> yes	-1.0786603e-08
-2.9404991	<s> Mr	-0.00030312192
-3.1415593	<s> just	-1.0786603e-08
-2.9404991	<s> if	-1.0310236e-05
-3.1412594	<s> my	-1.0786603e-08
-3.0029938	<s> these	-1.0786603e-08
-2.1437331	<s> is	-1.0786603e-08
-3.1307	<s> why	-1.0786603e-08
-2.3242557	<s> it	-1.0786603e-08
-3.1412594	<s> Madam	-0.00030312192
-3.0588481	<s> therefore	-0.00030312192
-2.26387	<s> we	-3.1005957e-06
-3.0029938	<s> no	-1.0786603e-08
-2.940688	<s> should	-1.0786603e-08
-3.1032668	<s> today	-1.0786603e-08
-2.3895216	<s> by	-1.0786603e-08
-3.0029922	<s> but	-1.5460052e-05
-3.1032668	<s> what	-1.0786603e-08
-3.1307022	<s> two	-1.0786603e-08
-3.1431499	<s> (	-1.0786603e-08
-3.1415593	<s> thank	-1.0786603e-08
-3.1431499	<s> please	-1.0786603e-08
-3.1032668	<s> another	-1.0786603e-08
-3.1415571	<s> furthermore	-1.5460052e-05
-3.1415593	<s> however	-1.0786603e-08
-3.1431499	<s> consequently	-1.0786603e-08
-3.1431499	<s> according	-1.0786603e-08
-3.1415571	<s> finally	-1.5460052e-05
-3.1431499	<s> lastly	-1.0786603e-08
-3.1431499	<s> structural	-1.0786603e-08
-3.131342	I declare	-1.0786603e-08
-2.5759439	I would	-0.00059190336
-3.0914519	I hope	-1.0786603e-08
-3.0472882	I do	-1.0786603e-08
-3.0472882	I therefore	-1.0786603e-08
-3.131342	I admit	-1.0786603e-08
-2.9288752	I should	-1.0310236e-05
-3.1188867	I can	-1.0786603e-08
-3.1313343	I am	-1.0786603e-08
-3.1297514	I think	-1.0786603e-08
-3.1302897	the next	-1.0786603e-08
-3.0921511	the Group	-1.0786603e-08
-2.5399828	the Commission	-6.1904267e-06
-3.1304436	the events	-1.0786603e-08
-3.0920102	the vote	-1.0786603e-08
-3.1296089	the rapporteur	-7.7353505e-06
-3.1320341	the ever	-1.0786603e-08
-3.1320341	the relevant	-1.0786603e-08
-2.6845959	you will	-1.0786603e-08
-2.3769906	you have	-1.0786603e-08
-3.129503	a final	-1.0786603e-08
-3.1310936	a moment	-1.0786603e-08
-3.1331296	in addition	-1.0786603e-08
-3.1206855	in area	-1.0786603e-08
-3.1331296	in principle	-1.0786603e-08
-3.1331296	in many	-1.0786603e-08
-2.1321943	that is	-7.7353505e-06
-1.3391701	although ,	-1.0786603e-08
-2.9277513	as Mr	-1.0786603e-08
-1.3391706	this ,	-1.0786603e-08
-2.6846015	this will	-1.0786603e-08
-3.0470329	this debate	-1.0786603e-08
-2.1316693	this is	-1.0786603e-08
-3.1186389	this lack	-1.0786603e-08
-3.1310867	this makes	-1.0786603e-08
-1.3391701	yes ,	-1.0786603e-08
-3.0912127	Mr President	-1.5460052e-05
-3.1294956	just think	-1.0786603e-08
-1.6294533	if the	-1.0786603e-08
-3.1186384	if your	-1.0786603e-08
-3.1294956	my question	-1.0786603e-08
-2.8646005	my amendments	-1.0786603e-08
-3.1310861	my second	-1.0786603e-08
-3.1310862	these findings	-1.0786603e-08
-2.8646016	is there	-1.0786603e-08
-2.413132	why has	-1.0786603e-08
-2.5815275	why are	-1.0786603e-08
-2.6846028	it will	-1.0786603e-08
-3.1294974	it seems	-1.0786603e-08
-3.1310879	it merely	-1.0786603e-08
-3.0911048	Madam President	-1.5460052e-05
-1.3391701	therefore ,	-1.0786603e-08
-3.0912232	we hope	-1.0786603e-08
-2.3752251	we have	-1.0786603e-08
-3.1186585	we still	-1.0786603e-08
-3.1295157	we shall	-1.0786603e-08
-3.0470525	we therefore	-1.0786603e-08
-2.5779491	we are	-1.0786603e-08
-3.1295157	we look	-1.0786603e-08
-3.1295157	we see	-1.0786603e-08
-3.1311063	we understand	-1.0786603e-08
-2.8646005	no amendments	-1.0786603e-08
-1.6294555	should the	-1.0786603e-08
-2.8016755	today 's	-1.5460052e-05
-2.7418658	by not	-1.0786603e-08
-2.8016906	but I	-1.5460052e-05
-2.1316693	what is	-1.0786603e-08
-1.473865	two of	-1.0786603e-08
-2.7414678	( Parliament	-1.0786603e-08
-2.8017007	thank you	-1.0786603e-08
-3.1310861	please let	-1.0786603e-08
-3.0912031	another matter	-1.0786603e-08
-1.3391701	furthermore ,	-1.0786603e-08
-1.3391684	however ,	-1.0786603e-08
-1.3391701	consequently ,	-1.0786603e-08
-1.6076527	according to	-1.0786603e-08
-1.3391701	finally ,	-1.0786603e-08
-1.3391701	lastly ,	-1.0786603e-08
-3.1186384	structural Funds	-1.0786603e-08
-3.1310861	declare resumed	-1.0786603e-08
-2.9910249	would like	-6.1904267e-06
-3.047135	would therefore	-1.0786603e-08
-3.1294956	hope my	-1.0786603e-08
-2.7414531	do not	-1.0786603e-08
-3.1294956	therefore repeat	-1.0786603e-08
-1.8692181	admit that	-1.0786603e-08
-2.9909322	should like	-1.0786603e-08
-3.1294956	can live	-1.0786603e-08
-2.7414678	am very	-1.0786603e-08
-3.1310861	am terribly	-1.0786603e-08
-1.8692181	think that	-1.0786603e-08
-3.1294956	next item	-1.0786603e-08
-1.473865	Group of	-1.0786603e-08
-3.1294956	Commission decides	-1.0786603e-08
-1.473865	events of	-1.0786603e-08
-2.684601	vote will	-1.0786603e-08
-2.413132	rapporteur has	-1.0786603e-08
-3.1186384	ever increasing	-1.0786603e-08
-3.1186384	relevant standards	-1.0786603e-08
-2.5625615	will be	-1.0786603e-08
-3.1324116	have requested	-1.0786603e-08
-3.0470323	final amendment	-1.0786603e-08
-3.1310861	moment ago	-1.0786603e-08
-1.3391701	addition ,	-1.0786603e-08
-3.0912031	area after	-1.0786603e-08
-1.3391701	principle ,	-1.0786603e-08
-3.1294956	many ways	-1.0786603e-08
-3.1186395	is why	-1.0786603e-08
-2.4403608	, as	-1.0786603e-08
-3.1311089	Mr Simpson	-1.0786603e-08
-1.6765131	debate and	-1.0786603e-08
-3.1294913	is important	-1.0786603e-08
-1.4736573	lack of	-1.0786603e-08
-2.3122376	makes it	-1.0786603e-08
-2.8910549	, Mr	-1.0786603e-08
-1.3391692	President ,	-7.7353505e-06
-1.473865	think of	-1.0786603e-08
-3.132033	the House	-1.0786603e-08
-3.1304436	the Commissioner	-1.0786603e-08
-3.1310861	your ruling	-1.0786603e-08
-3.1310861	question relates	-1.0786603e-08
-3.1310862	amendments concern	-1.0786603e-08
-3.0912031	second point	-1.0786603e-08
-3.1310861	findings form	-1.0786603e-08
-1.9990053	there a	-1.0786603e-08
-2.8646167	has there	-1.0786603e-08
-2.8646005	are there	-1.0786603e-08
-1.3397672	will ,	-1.0786603e-08
-3.1310861	seems absolutely	-1.0786603e-08
-3.1310861	merely prolongs	-1.0786603e-08
-3.1327532	, Madam	-1.0786603e-08
-2.4960468	, we	-4.4248063e-06
-1.8692158	hope that	-1.0786603e-08
-1.608978	have to	-1.0786603e-08
-2.3774578	still have	-1.0786603e-08
-3.0470323	shall therefore	-1.0786603e-08
-3.1294956	shall pay	-1.0786603e-08
-3.1294956	therefore accept	-1.0786603e-08
-3.1294956	are concerned	-1.0786603e-08
-1.6076527	look to	-1.0786603e-08
-2.3122376	see it	-1.0786603e-08
-1.8692181	understand that	-1.0786603e-08
-2.3774531	amendments have	-1.0786603e-08
-3.1195853	the European	-7.7353505e-06
-3.1294956	's decision	-1.0786603e-08
-3.1294956	not setting	-1.0786603e-08
-1.3391712	is ,	-1.0786603e-08
-0.96877428	of the	-3.0349725e-05
-3.1310878	Parliament rejected	-1.0786603e-08
-2.7414697	you very	-1.0786603e-08
-2.2539856	let this	-1.0786603e-08
-2.5350714	matter we	-1.0786603e-08
-2.3154639	, it	-1.0310236e-05
-3.1327532	, three	-1.0786603e-08
-3.1325477	, when	-1.0786603e-08
-2.5710416	, I	-2.819703e-06
-1.5615988	to the	-6.9940735e-05
-2.8646005	Funds %-%	-1.0786603e-08
-1.6294533	resumed the	-1.0786603e-08
-1.3399665	like ,	-1.0786603e-08
-3.0919995	like once	-1.0786603e-08
-1.5772953	like to	-6.4945366e-05
-3.1194348	like your	-1.0786603e-08
-3.1294419	once again	-1.0786603e-08
-3.1324116	have preferred	-1.0786603e-08
-1.629452	ask the	-1.0786603e-08
-2.8016806	ask you	-1.5460052e-05
-2.9909301	firstly like	-1.0786603e-08
-3.0912031	therefore once	-1.0786603e-08
-2.9909301	also like	-1.0786603e-08
-2.8678573	, be	-1.0786603e-08
-3.0912031	my proposal	-1.0786603e-08
-3.1310861	then raise	-1.0786603e-08
-3.1294956	tabled some	-1.0786603e-08
-3.1310861	an initiative	-1.0786603e-08
-2.4511311	do as	-1.0786603e-08
-3.1294956	not know	-1.0786603e-08
-1.6294533	repeat the	-1.0786603e-08
-1.3403417	that ,	-7.7353505e-06
-2.9909301	first like	-1.0786603e-08
-1.9990053	hear a	-1.0786603e-08
-2.413132	live with	-1.0786603e-08
-1.8692181	told that	-1.0786603e-08
-3.1310861	very pleased	-1.0786603e-08
-3.1310861	terribly sorry	-1.0786603e-08
-3.1310861	rather sceptical	-1.0786603e-08
-3.1294956	not see	-1.0786603e-08
-2.9286242	give an	-1.0786603e-08
-2.9922262	that but	-1.0786603e-08
-2.2552168	that this	-1.0786603e-08
-1.8576727	that in	-1.0786603e-08
-3.1304436	the session	-1.0786603e-08
-1.4738634	session of	-1.5460052e-05
-3.1310878	Parliament adjourned	-1.0786603e-08
-1.6076527	programmes to	-1.0786603e-08
-1.4899034	Union .	-1.0786603e-08
-3.1310861	Union fail	-1.0786603e-08
-1.3391701	year ,	-1.0786603e-08
-1.3391701	deadline ,	-1.0786603e-08
-2.8029951	that you	-1.0786603e-08
-3.1310861	' millennium	-1.0786603e-08
-1.989053	in a	-4.4248063e-06
-3.1686258	of television	-1.0786603e-08
-2.5351605	which we	-1.0786603e-08
-3.1310861	few days	-1.0786603e-08
-2.1316693	item is	-1.0786603e-08
-3.1294955	five years	-1.0786603e-08
-3.1702164	of governments	-1.0786603e-08
-3.1304897	and television	-1.0786603e-08
-1.3391701	agrees ,	-1.0786603e-08
-1.3391701	Sea ,	-1.0786603e-08
-2.4511311	agenda as	-1.0786603e-08
-3.1310861	important facts	-1.0786603e-08
-2.3123289	which it	-1.0786603e-08
-3.144217	on Regional	-1.0786603e-08
-3.1458075	on Employment	-1.0786603e-08
-1.6076527	seems to	-1.0786603e-08
-2.5350714	%-% we	-1.0786603e-08
-2.1771542	embargo on	-1.0786603e-08
-1.8567863	embargo in	-1.0786603e-08
-3.1294967	is extremely	-1.0786603e-08
-1.8567863	majority in	-1.0786603e-08
-2.7370784	? </s>
-1.4899034	there .	-1.0786603e-08
-3.1310861	very carefully	-1.0786603e-08
-1.473865	version of	-1.0786603e-08
-3.05029	, because	-1.0786603e-08
-3.1702164	of Presidents	-1.0786603e-08
-3.1702164	of Procedure	-1.0786603e-08
-1.6765131	tabled and	-1.0786603e-08
-3.1577686	of European	-1.0786603e-08
-3.175216	. I	-1.0786603e-08
-1.5910991	and the	-1.0786603e-08
-3.1312699	to pay	-1.0786603e-08
-3.1328627	to monitor	-1.0786603e-08
-0.23864234	. </s>
-3.1311024	has debated	-1.0786603e-08
-2.7414689	is not	-1.0786603e-08
-3.1310861	's legislative	-1.0786603e-08
-3.0911867	's proposal	-1.0786603e-08
-1.505927	for the	-0.00056862403
-2.8052559	with regard	-0.0089324552
-2.9909301	express its	-1.0786603e-08
-1.6076527	also to	-1.0786603e-08
-3.1186384	decides whether	-1.0786603e-08
-1.8692123	ensures that	-1.0786603e-08
-1.473865	reform of	-1.0786603e-08
-3.1702164	of last	-1.0786603e-08
-3.1345342	for 2000	-1.0786603e-08
-2.4163501	, with	-1.0786603e-08
-3.1686258	of support	-1.0786603e-08
-1.5561971	in the	-1.0786603e-08
-3.0918002	will take	-1.0786603e-08
-3.1294956	great difficulties	-1.0786603e-08
-2.1771494	debate on	-1.0786603e-08
-1.473865	areas of	-1.0786603e-08
-2.0703696	plan for	-1.0786603e-08
-2.9909301	Group were	-1.0786603e-08
-3.1294956	Group responsible	-1.0786603e-08
-1.473865	group of	-1.0786603e-08
-3.1310861	- DE	-1.0786603e-08
-2.1213054	which is	-1.0786603e-08
-2.4129003	it has	-1.0786603e-08
-2.0024529	for a	-1.0786603e-08
-3.0617538	on minimum	-1.0786603e-08
-3.1295118	has accepted	-1.0786603e-08
-2.8630202	should be	-1.0786603e-08
-3.0298435	of these	-1.0786603e-08
-2.8646005	institutions %-%	-1.0786603e-08
-3.1702164	of feeling	-1.0786603e-08
-1.4899034	Conference .	-1.0786603e-08
-1.6076527	States to	-1.0786603e-08
-1.4899034	States .	-1.0786603e-08
-2.413132	States with	-1.0786603e-08
-3.1294956	States may	-1.0786603e-08
-1.2516798	on the	-4.1305369e-06
-3.1304897	and instead	-1.0786603e-08
-2.3744442	have been	-3.1005957e-06
-1.8567863	currently in	-1.0786603e-08
-3.1294956	into force	-1.0786603e-08
-1.6132093	by the	-5.1604806e-06
-3.1686258	of enforcement	-1.0786603e-08
-3.0912193	has taken	-1.0786603e-08
-3.1295118	has pointed	-1.0786603e-08
-3.1220864	for his	-1.0786603e-08
-2.7804759	of Parliament	-1.0310236e-05
-1.3401642	and ,	-1.0786603e-08
-2.9290222	by Mr	-1.0786603e-08
-3.1686258	of examination	-1.0786603e-08
-1.4899034	standards .	-1.0786603e-08
-2.0721462	to for	-1.0786603e-08
-3.1345342	for greater	-1.0786603e-08
-1.4899034	instead .	-1.0786603e-08
-2.282321	accidents which	-1.0786603e-08
-1.9999694	and a	-1.0786603e-08
-2.3774578	infrastructure by	-1.0786603e-08
-3.1331296	in Belgium	-1.5460052e-05
-3.1310861	increasing volume	-1.0786603e-08
-1.4899034	environment .	-1.0786603e-08
-2.282321	standards which	-1.0786603e-08
-3.0859159	of dangerous	-0.00030312192
-2.7805971	of very	-1.0786603e-08
-1.3391701	group ,	-1.0786603e-08
-3.1310872	is unable	-1.0786603e-08
-3.1702164	of view	-1.0786603e-08
-3.1320803	and presenting	-1.0786603e-08
-2.1316669	there is	-1.0786603e-08
-3.1686258	of certain	-1.0786603e-08
-2.0703696	examination for	-1.0786603e-08
-2.4131114	cooperation with	-1.5460052e-05
-1.5431031	, the	-1.0786603e-08
-1.872298	, that	-1.0786603e-08
-2.9909301	completes its	-1.0786603e-08
-3.1345342	for a)	-1.0786603e-08
-3.1310861	hoc transportation	-1.0786603e-08
-3.1331333	in writing	-1.0786603e-08
-3.1310861	relate precisely	-1.0786603e-08
-3.1186384	representing energy	-1.0786603e-08
-1.489901	procedure .	-1.5460052e-05
-3.1310861	- resistance	-1.0786603e-08
-2.2843676	in which	-1.0786603e-08
-2.8017007	differ from	-1.0786603e-08
-3.0912031	- President	-1.0786603e-08
-3.1702164	of play	-1.0786603e-08
-3.1186384	towards harmonisation	-1.0786603e-08
-1.8567485	is in	-1.0310236e-05
-2.5815275	Commission are	-1.0786603e-08
-2.2801675	of this	-5.1604806e-06
-3.1702164	of non	-1.0786603e-08
-3.0470323	difficulties because	-1.0786603e-08
-3.1310861	problems justifying	-1.0786603e-08
-1.6294511	between the	-1.0786603e-08
-2.282321	amendments which	-1.0786603e-08
-3.1186384	Fund countries	-1.0786603e-08
-3.1686236	of Structural	-1.5460052e-05
-2.6857555	. it	-1.0786603e-08
-3.1686258	of services	-1.0786603e-08
-1.4738627	use of	-1.0786603e-08
-3.1702164	of renewables	-1.0786603e-08
-3.1310862	programme might	-1.0786603e-08
-3.1294956	funding resources	-1.0786603e-08
-3.1311774	which face	-1.0786603e-08
-3.1294955	taking place	-1.0786603e-08
-1.473865	sources of	-1.0786603e-08
-3.1702164	of infrastructures	-1.0786603e-08
-2.9909679	from rural	-1.0786603e-08
-2.9677544	of an	-1.0786603e-08
-3.1702164	of companies	-1.0786603e-08
-3.1702164	of jobs	-1.0786603e-08
-1.3391701	century ,	-1.0786603e-08
-3.1195853	the new	-1.0786603e-08
-2.7414502	European Parliament	-1.0786603e-08
-3.1310862	European programmes	-1.0786603e-08
-3.1310862	European Union	-1.0786603e-08
-3.1294419	new year	-1.0786603e-08
-3.1310861	next few	-1.0786603e-08
-2.8017007	type you	-1.0786603e-08
-3.1294956	draft agenda	-1.0786603e-08
-2.1771542	Committee on	-1.0786603e-08
-3.1310861	final version	-1.0786603e-08
-1.473865	Rules of	-1.0786603e-08
-3.1186384	amendments tabled	-1.0786603e-08
-1.473865	Party of	-1.0786603e-08
-1.4899034	Commission .	-1.0786603e-08
-3.1310682	very great	-1.0786603e-08
-3.0912031	Socialist Group	-1.0786603e-08
-3.1186384	Seattle Conference	-1.0786603e-08
-1.3391701	Minutes ,	-1.0786603e-08
-3.1310323	Member States	-1.0786603e-08
-1.6765131	directive and	-1.0786603e-08
-2.3774578	directive have	-1.0786603e-08
-3.1310861	directive currently	-1.0786603e-08
-3.1310861	road accidents	-1.0786603e-08
-1.473864	transport of	-1.0786603e-08
-1.473865	laws of	-1.0786603e-08
-1.3391701	CEN ,	-1.0786603e-08
-1.3391701	Mediterranean ,	-1.0786603e-08
-1.8567863	ways in	-1.0786603e-08
-1.6765131	annexes and	-1.0786603e-08
-1.4899034	government .	-1.0786603e-08
-1.3391701	Internet ,	-1.0786603e-08
-1.473865	territory of	-1.0786603e-08
-3.1310861	21st century	-1.0786603e-08
-3.1310861	Socialists requests	-1.0786603e-08
-3.1310861	's ten	-1.0786603e-08
-3.1186384	's other	-1.0786603e-08
-1.9990053	suffered a	-1.0786603e-08
-1.8692181	disasters that	-1.0786603e-08
-3.1287673	this week	-1.0786603e-08
-1.6076527	Group to	-1.0786603e-08
-3.1294956	directive may	-1.0786603e-08
-1.473865	Europe of	-1.0786603e-08
-1.4899034	kind .	-1.0786603e-08
-2.0022629	, a	-1.0786603e-08
-1.8567863	channels in	-1.0786603e-08
-1.6765131	explosions and	-1.0786603e-08
-1.6765131	agricultural and	-1.0786603e-08
-3.1310861	more substantial	-1.0786603e-08
-3.1310861	two bodies	-1.0786603e-08
-2.8017007	committee 's	-1.0786603e-08
-3.1310861	farm workers	-1.0786603e-08
-1.6765131	goods and	-1.0786603e-08
-1.4899034	goods .	-1.0786603e-08
-2.3774578	goods by	-1.0786603e-08
-3.1310861	goods within	-1.0786603e-08
-3.1310861	goods under	-1.0786603e-08
-3.0912031	no vote	-1.0786603e-08
-2.9909301	at its	-1.0786603e-08
-3.1310861	January pursuant	-1.0786603e-08
-2.8645714	week %-%	-1.0786603e-08
-3.1294956	great significance	-1.0786603e-08
-3.1310861	small amounts	-1.0786603e-08
-1.6278801	from the	-1.0786603e-08
-1.6109103	, to	-1.0786603e-08
-2.3774578	generated by	-1.0786603e-08
-3.0912031	months after	-1.0786603e-08
-3.1186384	countries where	-1.0786603e-08
-3.0488071	to do	-1.0786603e-08
-2.9909301	requirements but	-1.0786603e-08
-2.5350605	why we	-1.0786603e-08
-3.1294955	passing through	-1.0786603e-08
-3.131546	with partially	-1.0786603e-08
-3.1343438	, known	-1.0786603e-08
-3.1310861	value internationally	-1.0786603e-08
-3.1343438	, namely	-1.0786603e-08
-1.4899034	own .	-1.0786603e-08
-1.3391701	provisions ,	-1.0786603e-08
-1.3391701	temperatures ,	-1.0786603e-08
-3.1294955	certainty here	-1.0786603e-08
-2.4131331	is with	-1.0786603e-08
-3.1310861	matters stand	-1.0786603e-08
-3.1309784	degrees below	-1.5460052e-05
-3.121896	, increasing	-1.0786603e-08
-1.6765131	Funds and	-1.0786603e-08
-3.1310861	Funds assistance	-1.0786603e-08
-2.8645987	is also	-1.0786603e-08
-1.6773817	, and	-1.0786603e-08
-2.684601	education will	-1.0786603e-08
-3.1702164	of industrial	-1.0786603e-08
-1.3391701	policy ,	-1.0786603e-08
-3.1343438	, electronic	-1.0786603e-08
-3.1345342	for renewable	-1.0786603e-08
-1.8510674	so that	-6.1904267e-06
-2.2828455	, which	-5.1604806e-06
-3.1310861	activity owing	-1.0786603e-08
-1.6294533	amongst the	-1.0786603e-08
-2.9943781	for rural	-1.0786603e-08
-3.1304897	and services	-1.0786603e-08
-3.1294956	- agricultural	-1.0786603e-08
-2.1771542	adjourned on	-1.0786603e-08
-3.1304897	and Council	-1.0786603e-08
-3.1328627	to protect	-1.0786603e-08
-1.8692181	requests that	-1.0786603e-08
-1.6076527	fail to	-1.0786603e-08
-3.1458075	on Friday	-1.0786603e-08
-3.1311089	Mr Ari	-1.0786603e-08
-2.8646005	Commission %-%	-1.0786603e-08
-3.1186384	Council directive	-1.0786603e-08
-3.1310862	their citizens	-1.0786603e-08
-1.9990053	introduce a	-1.0786603e-08
-1.6294533	endorsed the	-1.0786603e-08
-3.1294956	week about	-1.0786603e-08
-2.2539856	addressed this	-1.0786603e-08
-1.3391701	position ,	-1.0786603e-08
-2.8646005	ten amendments	-1.0786603e-08
-2.8646005	other amendments	-1.0786603e-08
-2.8678581	, %-%	-1.0786603e-08
-3.1304436	the request	-1.0786603e-08
-3.1310861	Friday 17	-1.0786603e-08
-1.4738704	part of	-1.0786603e-08
-1.8692181	fact that	-1.0786603e-08
-2.8017007	Commission 's	-1.0786603e-08
-3.1310861	administrative reform	-1.0786603e-08
-3.1186384	broad areas	-1.0786603e-08
-2.0703696	proposal for	-1.0786603e-08
-1.6765116	report and	-1.0786603e-08
-2.0703696	requirements for	-1.0786603e-08
-1.473865	organisation of	-1.0786603e-08
-1.473865	approximation of	-1.0786603e-08
-1.473865	shores of	-1.0786603e-08
-1.473865	activity of	-1.0786603e-08
-3.1310861	17 _th	-1.0786603e-08
-3.0912031	third matter	-1.0786603e-08
-1.8567863	subject in	-1.0786603e-08
-1.6765131	issue and	-1.0786603e-08
-3.0912031	other report	-1.0786603e-08
-2.2833151	and which	-1.0786603e-08
-3.121896	, considering	-1.0786603e-08
-3.1294955	strategic objectives	-1.0786603e-08
-2.282321	reports which	-1.0786603e-08
-2.9286242	magnificent work	-1.0786603e-08
-3.1294956	standards regarding	-1.0786603e-08
-1.4899034	transport .	-1.0786603e-08
-1.3391701	Policy ,	-1.0786603e-08
-3.1320803	and Social	-1.0786603e-08
-3.1310861	_th December	-1.0786603e-08
-3.1310861	December 1999	-1.0786603e-08
-1.3391701	1999 ,	-1.0786603e-08
-2.8026949	and I	-1.0786603e-08
-3.0913057	would once	-1.0786603e-08
-3.0913057	would ask	-1.0786603e-08
-3.1311888	would firstly	-1.0786603e-08
-1.3391701	hope ,	-1.0786603e-08
-3.1199639	have tabled	-1.0786603e-08
-2.9286242	feel an	-1.0786603e-08
-3.0470323	shall do	-1.0786603e-08
-3.0912052	should first	-1.0786603e-08
-3.1310861	can hear	-1.0786603e-08
-3.1310861	am rather	-1.0786603e-08
-1.8692181	accept that	-1.0786603e-08
-1.8692181	believe that	-1.0786603e-08
-3.1294955	dreaded '	-1.0786603e-08
-1.4738627	number of	-1.0786603e-08
-3.1294956	matter seems	-1.0786603e-08
-2.0703696	Commission for	-1.0786603e-08
-2.0703696	programme for	-1.0786603e-08
-1.473865	positions of	-1.0786603e-08
-2.0703697	need for	-1.0786603e-08
-1.6765131	Netherlands and	-1.0786603e-08
-1.473864	amendment of	-1.0310236e-05
-3.1310861	prerequisites differ	-1.0786603e-08
-3.1310861	basic problems	-1.0786603e-08
-3.1186384	consistency between	-1.0786603e-08
-1.3391701	course ,	-1.0786603e-08
-1.4899034	course .	-1.0786603e-08
-3.1320341	the broad	-1.0786603e-08
-3.0899381	the proposal	-1.0786603e-08
-1.473865	behalf of	-1.0786603e-08
-3.1294956	his magnificent	-1.0786603e-08
-3.131539	in particular	-1.0786603e-08
-1.6294511	whether the	-1.0786603e-08
-3.1294955	lays down	-1.0786603e-08
-3.1310861	such decentralisation	-1.0786603e-08
-2.0713638	and for	-1.0786603e-08
-3.1310861	be competitive	-1.0786603e-08
-1.6294533	thank the	-1.0786603e-08
-1.473865	success of	-1.0786603e-08
-3.1310936	a sense	-1.0786603e-08
-3.1295868	which case	-1.0786603e-08
-1.3391701	fact ,	-1.0786603e-08
-3.1294955	any case	-1.0786603e-08
-2.0703696	particular for	-1.0786603e-08
-2.413132	accordance with	-1.0786603e-08
-1.3391701	2001 ,	-1.0786603e-08
-3.1294955	her own	-1.0786603e-08
-3.1310867	this starting	-1.0786603e-08
-1.6076538	is to	-1.0786603e-08
-3.1294956	Conference being	-1.0786603e-08
-3.1194363	the committee	-1.0786603e-08
-3.1311089	Mr Barón	-1.0786603e-08
-1.8567863	expressed in	-1.0786603e-08
-3.1311063	we always	-1.0786603e-08
-2.4511312	well as	-1.0786603e-08
-3.0921511	the people	-1.0786603e-08
-1.999006	is a	-1.0786603e-08
-1.3391701	month ,	-1.0786603e-08
-3.0912036	this part	-1.0786603e-08
-3.0912036	this first	-1.0786603e-08
-1.8567863	examined in	-1.0786603e-08
-2.9286242	grateful if	-1.0786603e-08
-1.3391701	Evans ,	-1.0786603e-08
-1.6765131	Hänsch and	-1.0786603e-08
-1.3391701	Koch ,	-1.0786603e-08
-3.1294955	Ari Vatanen	-1.0786603e-08
-3.1310861	Vatanen spoke	-1.0786603e-08
-2.796048	would be	-1.0786603e-08
-3.1311888	would cause	-1.0786603e-08
-3.0912042	is what	-1.0786603e-08
-2.1316693	furthermore is	-1.0786603e-08
-2.4971539	that we	-1.0786603e-08
-1.4899034	magnificent .	-1.0786603e-08
-3.1311024	has transpired	-1.0786603e-08
-3.1310872	is supported	-1.0786603e-08
-3.1310872	is hard	-1.0786603e-08
-3.1310872	as far	-1.0786603e-08
-3.0861626	of all	-1.0786603e-08
-2.3773023	would have	-1.0786603e-08
-3.1300927	will finally	-1.0786603e-08
-1.6076527	were to	-1.0786603e-08
-1.8692181	ask that	-1.0786603e-08
-3.1310861	are introducing	-1.0786603e-08
-3.1294956	are now	-1.0786603e-08
-1.6294533	support the	-1.0786603e-08
-1.473865	nonetheless of	-1.0786603e-08
-3.1702164	of 20	-1.0786603e-08
-3.1320341	the dawn	-1.0786603e-08
-1.3391701	present ,	-1.0786603e-08
-1.5839109	that the	-9.0921916e-05
-3.1310867	this legislature	-1.0786603e-08
-1.3391701	example ,	-1.0786603e-08
-1.8567863	example in	-1.0786603e-08
-1.6765131	employees and	-1.0786603e-08
-3.1294955	164 votes	-1.0786603e-08
-3.1186427	minimum requirements	-1.0786603e-08
-1.6076527	regard to	-1.0786603e-08
-3.1320341	the PPE	-1.0786603e-08
-3.1702164	of 40	-1.0786603e-08
-1.8567863	also in	-1.0786603e-08
-2.1319233	so is	-1.0786603e-08
-3.1294972	Parliament decides	-1.0786603e-08
-3.1310879	it comes	-1.0786603e-08
-2.9909301	they were	-1.0786603e-08
-1.6294524	at the	-1.0786603e-08
-3.1323822	that certificates	-1.0786603e-08
-1.6294533	after the	-1.0786603e-08
-3.1310861	votes against	-1.0786603e-08
-1.473865	quarters of	-1.0786603e-08
-2.9803929	, but	-1.0786603e-08
-3.1304436	the use	-1.0786603e-08
-3.1310889	a process	-1.0786603e-08
-3.1320803	and unknown	-1.0786603e-08
-3.1309784	/ EC	-1.0786603e-08
-3.1310861	sufficiently adequate	-1.0786603e-08
-1.6765131	standards and	-1.0786603e-08
-1.3391701	technical ,	-1.0786603e-08
-3.1343438	, deeply	-1.0786603e-08
-3.1310861	or Austria	-1.0786603e-08
-3.1310861	or inland	-1.0786603e-08
-3.1320803	and Tourism	-1.0786603e-08
-3.1296089	the CEN	-7.7353505e-06
-2.282321	provisions which	-1.0786603e-08
-3.0470323	an amendment	-1.0786603e-08
-2.0703696	damaging for	-1.0786603e-08
-1.6765131	commerce and	-1.0786603e-08
-3.1327532	, through	-1.0786603e-08
-3.1320341	the changes	-1.0786603e-08
-3.1320341	the exodus	-1.0786603e-08
-2.9286242	Council should	-1.0786603e-08
-3.0911048	entry into	-1.5460052e-05
-1.6076506	need to	-1.0786603e-08
-3.1310861	social environment	-1.0786603e-08
-3.0912031	Economic Commission	-1.0786603e-08
-1.473865	content of	-1.0786603e-08
-3.1294955	growing use	-1.0786603e-08
-1.473865	creation of	-1.0786603e-08
-3.1320341	the administrative	-1.0786603e-08
-3.1310861	next month	-1.0786603e-08
-2.7414678	when Parliament	-1.0786603e-08
-1.3391701	secondly ,	-1.0786603e-08
-2.7414678	make Parliament	-1.0786603e-08
-2.413132	bit with	-1.0786603e-08
-2.7414678	generally very	-1.0786603e-08
-1.6294533	particular the	-1.0786603e-08
-3.1320341	the substance	-1.0786603e-08
-3.1320341	the current	-1.0786603e-08
-3.1343422	, during	-1.5460052e-05
-3.0912232	we then	-1.0786603e-08
-3.1310861	proposal ;	-1.0786603e-08
-2.8658947	that there	-1.0786603e-08
-1.3391701	are ,	-1.0786603e-08
-3.1331333	in Sri	-1.0786603e-08
-1.4899034	Cox .	-1.0786603e-08
-3.1310861	not adhere	-1.0786603e-08
-2.6848568	I will	-1.0786603e-08
-3.1310879	it easier	-1.0786603e-08
-2.3774578	unanimously by	-1.0786603e-08
-3.1310883	should resolve	-1.0786603e-08
-3.1294956	Committee meeting	-1.0786603e-08
-3.1310861	%-% cooperate	-1.0786603e-08
-1.3391694	all ,	-1.0786603e-08
-3.0912031	decisions taken	-1.0786603e-08
-3.0921501	the programme	-1.5460052e-05
-3.1310861	stage negotiations	-1.0786603e-08
-3.1320341	the EU	-1.0786603e-08
-3.1310861	directive amending	-1.0786603e-08
-3.1310861	abstentions )	-1.0786603e-08
-3.1294955	giving them	-1.0786603e-08
-1.6765131	together and	-1.0786603e-08
-3.1294956	positive cooperation	-1.0786603e-08
-2.1771515	work on	-1.0786603e-08
-2.0733449	, for	-7.7353505e-06
-2.9286242	had been	-1.0786603e-08
-3.1186384	- specific	-1.0786603e-08
-3.0912036	this report	-1.0786603e-08
-3.1310861	Development funds	-1.0786603e-08
-2.1803888	, on	-7.7353505e-06
-3.1186384	citizens who	-1.0786603e-08
-1.6294533	down the	-1.0786603e-08
-3.1310861	enacting less	-1.0786603e-08
-3.0912031	put into	-1.0786603e-08
-3.1331296	in accordance	-1.5460052e-05
-3.1310861	are affected	-1.0786603e-08
-1.4899034	Funds .	-1.0786603e-08
-3.1315427	in such	-1.0786603e-08
-1.473865	decentralisation of	-1.0786603e-08
-2.9910213	which were	-1.0786603e-08
-2.9909301	Affairs but	-1.0786603e-08
-3.1186384	development policy	-1.0786603e-08
-1.3391701	diversity ,	-1.0786603e-08
-1.6076527	supplements to	-1.0786603e-08
-3.1310861	- functional	-1.0786603e-08
-3.1331333	in any	-1.0786603e-08
-3.0944607	, first	-1.0786603e-08
-3.0929796	to ask	-1.0786603e-08
-3.1328605	to say	-1.0310236e-05
-3.1312721	to repeat	-1.0786603e-08
-3.0929796	to point	-1.0786603e-08
-3.1328627	to briefly	-1.0786603e-08
-3.1328627	to address	-1.0786603e-08
-3.1328627	to draw	-1.0786603e-08
-3.1310861	your advice	-1.0786603e-08
-2.9909301	again like	-1.0786603e-08
-3.1310861	been sufficient	-1.0786603e-08
-2.3122376	preferred it	-1.0786603e-08
-1.6294533	liked the	-1.0786603e-08
-3.1702164	of equal	-1.0786603e-08
-3.1310861	entirely appropriate	-1.0786603e-08
-1.6076527	obliged to	-1.0786603e-08
-2.9286242	terrible if	-1.0786603e-08
-1.6076547	you to	-1.0786603e-08
-3.0470324	once more	-1.0786603e-08
-3.1186413	a clear	-1.5460052e-05
-3.1310861	unnecessary cost	-1.0786603e-08
-3.1294956	be prepared	-1.0786603e-08
-3.1186384	those who	-1.0786603e-08
-1.473865	first of	-1.0786603e-08
-1.6076527	again to	-1.0786603e-08
-2.3122267	make it	-1.0786603e-08
-2.8017007	compliment you	-1.0786603e-08
-2.9286242	know if	-1.0786603e-08
-1.3391701	say ,	-1.0786603e-08
-1.8692181	say that	-1.0786603e-08
-1.8692181	repeat that	-1.0786603e-08
-1.6294533	congratulate the	-1.0786603e-08
-2.9286242	congratulate Mr	-1.0786603e-08
-2.8646005	point out	-1.0786603e-08
-3.1310861	briefly comment	-1.0786603e-08
-2.3774578	conclude by	-1.0786603e-08
-1.3391701	address ,	-1.0786603e-08
-3.0912031	draw people	-1.0786603e-08
-3.1294955	advice about	-1.0786603e-08
-3.0504804	for all	-1.0786603e-08
-3.1328627	to wish	-1.0786603e-08
-3.1328627	to congratulate	-1.0786603e-08
-2.8017007	wish you	-1.0786603e-08
-1.8692181	House that	-1.0786603e-08
-1.6765131	Commission and	-1.0786603e-08
-2.8646005	Commission also	-1.0786603e-08
-1.4899026	vote .	-1.5460052e-05
-3.0470323	annual debate	-1.0786603e-08
-1.473865	wording of	-1.0786603e-08
-2.3774578	delay by	-1.0786603e-08
-3.1294956	efforts towards	-1.0786603e-08
-1.473865	diversity of	-1.0786603e-08
-1.473865	effects of	-1.0786603e-08
-1.473865	establishment of	-1.0786603e-08
-1.9990073	you a	-1.0786603e-08
-3.1294907	this item	-1.0786603e-08
-3.1310861	been emphasised	-1.0786603e-08
-3.0912031	proper rules	-1.0786603e-08
-3.121896	, still	-1.0786603e-08
-1.6076544	Parliament to	-1.0786603e-08
-3.1310861	amended comitology	-1.0786603e-08
-3.1186384	more specific	-1.0786603e-08
-3.1310861	somewhat confused	-1.0786603e-08
-3.1310861	used provided	-1.0786603e-08
-1.6765131	competitive and	-1.0786603e-08
-2.8017007	Koch 's	-1.0786603e-08
-2.8017007	Swoboda 's	-1.0786603e-08
-1.4899034	end .	-1.0786603e-08
-2.2560323	in this	-1.0786603e-08
-3.0914571	so today	-1.0786603e-08
-1.473865	110 of	-1.0786603e-08
-2.6858971	that will	-1.0786603e-08
-3.1320803	and explain	-1.0786603e-08
-3.1320341	the Barents	-1.0786603e-08
-3.1320341	the Vice	-1.0786603e-08
-3.129503	a draft	-1.0786603e-08
-2.8016946	Parliament 's	-1.0786603e-08
-2.7414696	it very	-1.0786603e-08
-1.4899034	ourselves .	-1.0786603e-08
-2.1771561	you on	-1.0786603e-08
-3.1323822	that everything	-1.0786603e-08
-3.1323822	that tanks	-1.0786603e-08
-3.0912036	this programme	-1.0786603e-08
-2.8646005	if there	-1.0786603e-08
-3.132033	the arms	-1.5460052e-05
-3.1304436	the embargo	-1.0786603e-08
-3.1320803	and Tuesday	-1.0786603e-08
-1.6076546	it to	-1.0786603e-08
-3.1320803	and ratify	-1.0786603e-08
-3.1320341	the challenges	-1.0786603e-08
-3.1686258	of lower	-1.0786603e-08
-3.1294956	take account	-1.0786603e-08
-3.1186458	a new	-1.0786603e-08
-3.0483284	that safety	-1.0786603e-08
-3.1458001	on behalf	-1.5460052e-05
-3.0470329	this ?	-1.0786603e-08
-3.0912031	ourselves after	-1.0786603e-08
-1.3391701	opinion ,	-1.0786603e-08
-3.1186384	more attention	-1.0786603e-08
-3.1186384	particular attention	-1.0786603e-08
-3.1172295	the directive	-5.1604806e-06
-3.1195864	the lack	-1.0786603e-08
-3.1331333	in foggy	-1.0786603e-08
-1.8567835	people in	-1.5460052e-05
-3.1014085	Mr Koch	-7.7353505e-06
-1.3391697	out ,	-1.0786603e-08
-3.132033	the situation	-1.0786603e-08
-3.1320341	the texts	-1.0786603e-08
-1.3391701	action ,	-1.0786603e-08
-3.1294956	their national	-1.0786603e-08
-1.4899034	incomes .	-1.0786603e-08
-2.1771542	comment on	-1.0786603e-08
-3.1314841	by commenting	-1.0786603e-08
-3.0912031	us today	-1.0786603e-08
-3.1186384	these harmonisation	-1.0786603e-08
-3.1310861	differentiating elements	-1.0786603e-08
-2.9286242	up their	-1.0786603e-08
-2.9306713	in their	-1.0786603e-08
-3.1343438	, specifically	-1.0786603e-08
-2.8017008	people 's	-1.0786603e-08
-3.1310861	Nos 1	-1.0786603e-08
-3.1312721	to both	-1.0786603e-08
-1.6764356	Parliament and	-1.0786603e-08
-2.4141261	and with	-1.0786603e-08
-3.1186384	's increasing	-1.0786603e-08
-2.9922262	that rural	-1.0786603e-08
-1.6076527	up to	-1.0786603e-08
-3.1310936	a happy	-1.0786603e-08
-3.1304436	the fact	-1.0786603e-08
-1.9990053	examine a	-1.0786603e-08
-1.8692181	ensure that	-1.0786603e-08
-1.8692181	request that	-1.0786603e-08
-3.1186384	happy new	-1.0786603e-08
-3.1310936	a pleasant	-1.0786603e-08
-3.1324116	have seen	-1.0786603e-08
-3.1310861	be aware	-1.0786603e-08
-1.9990053	requested a	-1.0786603e-08
-3.1294956	just suggested	-1.0786603e-08
-3.1186384	kept your	-1.0786603e-08
-1.4899034	much .	-1.0786603e-08
-3.1328605	to speak	-1.0786603e-08
-1.3391701	debate ,	-1.0786603e-08
-3.1186384	festive period	-1.0786603e-08
-3.1686258	of three	-1.0786603e-08
-3.1577686	of countries	-1.0786603e-08
-3.1702164	of bomb	-1.0786603e-08
-3.1577686	of other	-1.0786603e-08
-3.1686258	of reasons	-1.0786603e-08
-3.1702164	of natural	-1.0786603e-08
-2.2685731	on this	-1.0786603e-08
-3.1294955	letter setting	-1.0786603e-08
-3.1328627	to tell	-1.0786603e-08
-3.1328627	to hasten	-1.0786603e-08
-1.6076527	message to	-1.0786603e-08
-3.1310861	message going	-1.0786603e-08
-2.4511311	channel as	-1.0786603e-08
-1.4899034	light .	-1.0786603e-08
-2.1316693	amendment is	-1.0786603e-08
-2.8646005	statement be	-1.0786603e-08
-3.5046041	. either	-1.0786603e-08
-3.1310861	positive sign	-1.0786603e-08
-3.1186384	brief period	-1.0786603e-08
-2.255722	to this	-1.0786603e-08
-3.1310861	who wishes	-1.0786603e-08
-3.1702164	of laughter	-1.0786603e-08
-2.1771542	manner on	-1.0786603e-08
-2.0703696	date for	-1.0786603e-08
-2.282321	clause which	-1.0786603e-08
-2.9677544	of work	-1.0786603e-08
-3.1577686	of coordination	-1.0786603e-08
-2.0703696	objective for	-1.0786603e-08
-3.1702164	of experts	-1.0786603e-08
-3.1702164	of legal	-1.0786603e-08
-3.1310861	deal safer	-1.0786603e-08
-2.282321	matter which	-1.0786603e-08
-3.119931	that they	-1.0786603e-08
-1.6294533	supplements the	-1.0786603e-08
-1.3391701	ago ,	-1.0786603e-08
-1.6256029	with the	-1.0786603e-08
-2.9929772	in rural	-1.0786603e-08
-3.1310861	very low	-1.0786603e-08
-1.8567863	year in	-1.0786603e-08
-3.1304436	the number	-1.0786603e-08
-3.1310936	a bit	-1.0786603e-08
-3.0921511	the hope	-1.0786603e-08
-1.473865	course of	-1.0786603e-08
-2.282321	resolutions which	-1.0786603e-08
-3.0470323	past ?	-1.0786603e-08
-1.473865	Conference of	-1.0786603e-08
-1.8567863	ports in	-1.0786603e-08
-2.8646005	end there	-1.0786603e-08
-3.0912031	energy programme	-1.0786603e-08
-1.473865	networks of	-1.0786603e-08
-1.6076527	position to	-1.0786603e-08
-3.1310861	positive light	-1.0786603e-08
-3.1310861	responsible manner	-1.0786603e-08
-2.282321	way which	-1.0786603e-08
-3.1294956	way supplements	-1.0786603e-08
-1.3391701	sense ,	-1.0786603e-08
-2.3774595	Parliament have	-1.0786603e-08
-2.4511311	area as	-1.0786603e-08
-1.4899034	Lanka .	-1.0786603e-08
-2.3122376	case it	-1.0786603e-08
-1.6765131	materials and	-1.0786603e-08
-2.413132	offices has	-1.0786603e-08
-3.1186384	common position	-1.0786603e-08
-1.3391701	case ,	-1.0786603e-08
-1.3391701	doing ,	-1.0786603e-08
-1.473865	types of	-1.0786603e-08
-3.047887	the transport	-0.0036313444
-2.9286242	allow us	-1.0786603e-08
-1.3391701	Directive ,	-1.0786603e-08
-3.1186384	after area	-1.0786603e-08
-3.1343438	, Finland	-1.0786603e-08
-3.1294955	conditions when	-1.0786603e-08
-3.1311024	has shown	-1.0786603e-08
-3.1310861	no different	-1.0786603e-08
-3.1186384	cases where	-1.0786603e-08
-1.3391701	ways ,	-1.0786603e-08
-3.1343438	, Italy	-1.0786603e-08
-3.0912031	's vote	-1.0786603e-08
-3.1310861	home districts	-1.0786603e-08
-2.3126975	with it	-1.0786603e-08
-3.131546	with principles	-1.0786603e-08
-1.6294533	way the	-1.0786603e-08
-3.1186384	temperatures can	-1.0786603e-08
-3.1702164	of how	-1.0786603e-08
-3.144217	on rail	-1.0786603e-08
-3.1310861	own conclusions	-1.0786603e-08
-3.1294983	a way	-1.0786603e-08
-3.1310861	regions better	-1.0786603e-08
-3.1294956	out development	-1.0786603e-08
-1.3391701	areas ,	-1.0786603e-08
-3.1310861	be examined	-1.0786603e-08
-3.1310881	you enjoyed	-1.0786603e-08
-3.1186384	those considering	-1.0786603e-08
-2.684601	proposal will	-1.0786603e-08
-2.5360655	and we	-1.0786603e-08
-3.1294955	cannot give	-1.0786603e-08
-3.1310861	vast majority	-1.0786603e-08
-2.413132	Commission has	-1.0786603e-08
-3.1310861	Commission express	-1.0786603e-08
-3.1294956	Commission ensures	-1.0786603e-08
-3.1310861	two institutions	-1.0786603e-08
-2.684601	directive will	-1.0786603e-08
-1.473865	substance of	-1.0786603e-08
-3.1294955	current cooperation	-1.0786603e-08
-3.1294419	Cohesion Fund	-1.0786603e-08
-3.1294955	scant funding	-1.0786603e-08
-3.1331333	in 2001	-1.0786603e-08
-3.1331333	in her	-1.0786603e-08
-2.2539856	during this	-1.0786603e-08
-3.1186384	at present	-1.0786603e-08
-1.9990053	enjoyed a	-1.0786603e-08
-3.1324116	have kept	-1.0786603e-08
-3.1310861	Commission statement	-1.0786603e-08
-3.1294956	its common	-1.0786603e-08
-3.1310861	many cases	-1.0786603e-08
-3.1294956	some way	-1.0786603e-08
-3.1294955	Lapland temperatures	-1.0786603e-08
-3.0912031	come up	-1.0786603e-08
-3.1310861	were dreadful	-1.0786603e-08
-3.1294955	oral question	-1.0786603e-08
-2.4131274	work has	-1.0786603e-08
-3.0912031	starting point	-1.0786603e-08
-3.1310872	is matched	-1.0786603e-08
-1.3391701	been ,	-1.0786603e-08
-3.1304436	the decision	-1.0786603e-08
-2.8017008	why I	-1.0786603e-08
-3.1294955	Prodi made	-1.0786603e-08
-2.5815275	roads are	-1.0786603e-08
-2.0003302	have a	-1.0786603e-08
-3.1310861	then proceed	-1.0786603e-08
-1.9990053	get a	-1.0786603e-08
-3.1310861	are urging	-1.0786603e-08
-3.1294955	pass legislation	-1.0786603e-08
-3.1294956	can find	-1.0786603e-08
-3.1310872	as simple	-1.0786603e-08
-2.4511322	is as	-1.0786603e-08
-3.1294956	being used	-1.0786603e-08
-3.131546	with reservations	-1.0786603e-08
-1.473865	sections of	-1.0786603e-08
-3.1311888	would serve	-1.0786603e-08
-1.473865	% of	-1.0786603e-08
-2.8646167	has also	-1.0786603e-08
-3.1304897	and tankers	-1.0786603e-08
-3.1310861	Fund monies	-1.0786603e-08
-1.4899034	faces .	-1.0786603e-08
-3.1310861	considering rejection	-1.0786603e-08
-3.1310862	areas represent	-1.0786603e-08
-3.1310861	pleasant festive	-1.0786603e-08
-1.4899034	period .	-1.0786603e-08
-3.1310861	three months	-1.0786603e-08
-1.6294533	until the	-1.0786603e-08
-3.1310861	was told	-1.0786603e-08
-2.7414678	did not	-1.0786603e-08
-3.1320341	the shores	-1.0786603e-08
-3.1313401	so doing	-1.0786603e-08
-3.1310872	is sadly	-1.0786603e-08
-3.1324116	have referred	-1.0786603e-08
-2.9909301	want rural	-1.0786603e-08
-2.8017018	as you	-1.0786603e-08
-3.1310861	committee representing	-1.0786603e-08
-1.8567863	deficiencies in	-1.0786603e-08
-2.378055	will have	-1.0786603e-08
-3.1186384	very positive	-1.0786603e-08
-2.413132	Evans has	-1.0786603e-08
-3.1310861	Barón Crespo	-1.0786603e-08
-2.413132	Simpson has	-1.0786603e-08
-3.1310872	as Russia	-1.0786603e-08
-3.1294913	is concerned	-1.0786603e-08
-3.0470323	always do	-1.0786603e-08
-1.6294541	as the	-1.0786603e-08
-2.3774578	up by	-1.0786603e-08
-3.1294864	as possible	-1.0786603e-08
-2.3774578	events have	-1.0786603e-08
-1.6076527	come to	-1.0786603e-08
-2.3122376	because it	-1.0786603e-08
-1.3391701	seen ,	-1.0786603e-08
-2.8017007	aware from	-1.0786603e-08
-3.1310861	an unquestionably	-1.0786603e-08
-3.0912031	taken into	-1.0786603e-08
-3.1310861	implemented without	-1.0786603e-08
-2.413132	possible with	-1.0786603e-08
-2.1771542	up on	-1.0786603e-08
-3.1294955	raise again	-1.0786603e-08
-3.1294956	place tomorrow	-1.0786603e-08
-3.1324116	have Community	-1.0786603e-08
-1.6294533	lament the	-1.0786603e-08
-1.8692181	remember that	-1.0786603e-08
-1.473865	lot of	-1.0786603e-08
-1.473865	degree of	-1.0786603e-08
-3.0470398	a debate	-1.0786603e-08
-3.0912031	item taken	-1.0786603e-08
-3.1196293	a number	-0.0015499876
-2.3774578	adopted by	-1.0786603e-08
-1.4899034	proposed .	-1.0786603e-08
-3.1310861	proposed relating	-1.0786603e-08
-2.8645422	pointed out	-1.0786603e-08
-3.1294955	laid down	-1.0786603e-08
-1.6765131	constructed and	-1.0786603e-08
-1.4899034	sufficient .	-1.0786603e-08
-3.1186384	emphasised still	-1.0786603e-08
-2.3774578	compensated by	-1.0786603e-08
-2.684601	suggested would	-1.0786603e-08
-3.1310861	your word	-1.0786603e-08
-3.1294955	powerful reasons	-1.0786603e-08
-3.1294956	over recent	-1.0786603e-08
-1.62945	off the	-1.0786603e-08
-2.928626	it if	-1.0786603e-08
-2.9085879	. we	-1.0786603e-08
-2.8646005	some amendments	-1.0786603e-08
-2.0703634	regulations for	-1.5460052e-05
-3.1310861	rules governing	-1.0786603e-08
-3.1304436	the issue	-1.0786603e-08
-3.1320341	the dreaded	-1.0786603e-08
-3.1310861	millennium bug	-1.0786603e-08
-3.1294955	bug '	-1.0786603e-08
-3.1328627	to materialise	-1.0786603e-08
-3.1310861	' failed	-1.0786603e-08
-1.6076527	failed to	-1.0786603e-08
-1.3391701	materialise ,	-1.0786603e-08
-1.6294533	still the	-1.0786603e-08
-3.1310936	a lot	-1.0786603e-08
-3.1343438	, thus	-1.0786603e-08
-1.8567863	remain in	-1.0786603e-08
-3.129503	a responsible	-1.0786603e-08
-1.6073676	attention to	-7.7353505e-06
-3.1310861	countries suffered	-1.0786603e-08
-3.1310861	television channels	-1.0786603e-08
-3.1310861	bomb explosions	-1.0786603e-08
-3.1186384	other countries	-1.0786603e-08
-3.1186384	reasons why	-1.0786603e-08
-3.1310936	a series	-1.0786603e-08
-1.6294533	broaden the	-1.0786603e-08
-3.1186384	lorries carrying	-1.0786603e-08
-1.473865	series of	-1.0786603e-08
-3.1310861	natural disasters	-1.0786603e-08
-3.1323822	that truly	-1.0786603e-08
-2.9909301	truly were	-1.0786603e-08
-1.4899034	dreadful .	-1.0786603e-08
-3.1294956	find ourselves	-1.0786603e-08
-1.6076527	keen to	-1.0786603e-08
-2.7414678	because Parliament	-1.0786603e-08
-3.1195864	the coordination	-1.0786603e-08
-3.1310867	this subject	-1.0786603e-08
-3.0479794	the amendment	-1.5460052e-05
-3.1311063	we held	-1.0786603e-08
-3.1328627	to introduce	-1.0786603e-08
-3.1324116	have endorsed	-1.0786603e-08
-3.1294864	as well	-1.0786603e-08
-3.1294956	be possible	-1.0786603e-08
-3.1294956	- session	-1.0786603e-08
-1.3391701	important ,	-1.0786603e-08
-2.9240606	part -	-1.0310236e-05
-3.1310861	be yet	-1.0786603e-08
-1.8692181	if that	-1.0786603e-08
-3.0470323	about our	-1.0786603e-08
-1.8692181	%-% that	-1.0786603e-08
-3.1310861	were removed	-1.0786603e-08
-3.1294956	taken off	-1.0786603e-08
-3.1328627	to propose	-1.0786603e-08
-1.8508274	, in	-1.0786603e-08
-1.8681248	and that	-6.1904267e-06
-3.1310861	several times	-1.0786603e-08
-3.1310872	is correct	-1.0786603e-08
-1.8567863	; in	-1.0786603e-08
-1.6076527	question to	-1.0786603e-08
-3.1310861	may continue	-1.0786603e-08
-3.1686258	of infrastructure	-1.0786603e-08
-1.3391694	report ,	-1.5460052e-05
-2.9150791	has been	-1.0786603e-08
-3.1294966	as recent	-1.0786603e-08
-2.2549798	and this	-1.0786603e-08
-3.1702164	of ours	-1.0786603e-08
-3.1294955	comitology procedure	-1.0786603e-08
-3.1310879	it necessary	-1.0786603e-08
-3.1310861	point indicates	-1.0786603e-08
-3.1304436	the course	-1.0786603e-08
-1.3391701	days ,	-1.0786603e-08
-1.6294314	is the	-1.0786603e-08
-1.339169	years ,	-1.0786603e-08
-1.6765131	years and	-1.0786603e-08
-3.0912031	first part	-1.0786603e-08
-1.3391701	governments ,	-1.0786603e-08
-1.4899035	session .	-1.0786603e-08
-1.6765131	time and	-1.0786603e-08
-3.1294956	if she	-1.0786603e-08
-2.684601	Group would	-1.0786603e-08
-1.4899034	rules .	-1.0786603e-08
-2.0703696	ratings for	-1.0786603e-08
-3.1320803	and require	-1.0786603e-08
-1.4899034	activities .	-1.0786603e-08
-3.1327532	, both	-1.0786603e-08
-3.1310861	equal value	-1.0786603e-08
-3.1310861	clear message	-1.0786603e-08
-1.6076527	addition to	-1.0786603e-08
-3.1310861	unquestionably useful	-1.0786603e-08
-1.4899034	appropriate .	-1.0786603e-08
-1.4899034	specific .	-1.0786603e-08
-1.4899034	confused .	-1.0786603e-08
-3.0056515	on its	-1.0786603e-08
-1.8692181	provided that	-1.0786603e-08
-3.1310861	into consideration	-1.0786603e-08
-3.1328627	to inform	-1.0786603e-08
-3.1294956	towards increased	-1.0786603e-08
-2.2539856	if this	-1.0786603e-08
-3.1294955	without delay	-1.0786603e-08
-3.1310861	another sector	-1.0786603e-08
-3.1328605	to amend	-1.0786603e-08
-3.0916629	with action	-1.0786603e-08
-1.3391701	if ,	-1.0786603e-08
-3.1320803	and multi	-1.0786603e-08
-3.1320341	the press	-1.0786603e-08
-1.6765131	press and	-1.0786603e-08
-1.4899034	Socialists .	-1.0786603e-08
-3.1294956	working group	-1.0786603e-08
-1.473865	point of	-1.0786603e-08
-3.1331333	in Germany	-1.0786603e-08
-3.1310862	Member State	-1.0786603e-08
-3.1304897	and Regional	-1.0786603e-08
-1.4899025	areas .	-1.5460052e-05
-1.8692181	television that	-1.0786603e-08
-2.3774578	there have	-1.0786603e-08
-3.0490795	in our	-1.0786603e-08
-3.1186384	member who	-1.0786603e-08
-1.9990053	be a	-1.0786603e-08
-1.9990053	been a	-1.0786603e-08
-3.1310861	no Health	-1.0786603e-08
-3.1294956	only one	-1.0786603e-08
-3.1294955	matched funding	-1.0786603e-08
-3.1310861	fire instructions	-1.0786603e-08
-1.4771226	, of	-1.5460052e-05
-3.0474304	by our	-1.0786603e-08
-1.6765131	Health and	-1.0786603e-08
-1.6076527	relating to	-1.0786603e-08
-1.4899034	out .	-1.0786603e-08
-1.8567863	down in	-1.0786603e-08
-2.8678581	, so	-1.0786603e-08
-2.3122376	: it	-1.0786603e-08
-3.1320803	and maintained	-1.0786603e-08
-2.5506721	. on	-1.0786603e-08
-3.0470323	still more	-1.0786603e-08
-3.1314841	by means	-1.0786603e-08
-3.1294956	out extremely	-1.0786603e-08
-3.1320803	and killings	-1.0786603e-08
-1.8567863	killings in	-1.0786603e-08
-3.1310861	Sri Lanka	-1.0786603e-08
-3.1310945	Mr Evans	-1.0786603e-08
-3.1295118	has suggested	-1.0786603e-08
-3.1327532	, Commissioner	-1.0786603e-08
-2.413132	Crespo has	-1.0786603e-08
-2.9296183	and Mr	-1.0786603e-08
-3.1333526	on his	-1.0310236e-05
-3.1310861	's intrinsically	-1.0786603e-08
-3.1311024	has said	-1.0786603e-08
-1.4899034	Vatanen .	-1.0786603e-08
-1.6076527	spoke to	-1.0786603e-08
-3.1310861	's comments	-1.0786603e-08
-3.131342	I feel	-1.0786603e-08
-1.4899034	suggested .	-1.0786603e-08
-1.473865	initiative of	-1.0786603e-08
-3.1303333	of vote	-1.0786603e-08
-2.3774578	tabled by	-1.0786603e-08
-3.1186384	useful policy	-1.0786603e-08
-2.9919242	and rural	-1.0786603e-08
-3.1320341	the type	-1.0786603e-08
-3.130821	have just	-1.0786603e-08
-3.1310861	be entirely	-1.0786603e-08
-3.1310861	House agrees	-1.0786603e-08
-2.1316693	Commissioner is	-1.0786603e-08
-1.6294533	despite the	-1.0786603e-08
-2.9909301	item were	-1.0786603e-08
-2.1316693	ruling is	-1.0786603e-08
-3.1327532	, set	-1.0786603e-08
-2.9929772	in its	-1.0786603e-08
-3.1297514	I shall	-1.0786603e-08
-3.0912031	look into	-1.0786603e-08
-3.1686258	of course	-1.0786603e-08
-3.1186389	this area	-1.0786603e-08
-1.6076527	adhere to	-1.0786603e-08
-3.1186384	know whether	-1.0786603e-08
-3.0912031	today then	-1.0786603e-08
-2.9909301	been no	-1.0786603e-08
-1.4899034	retained .	-1.0786603e-08
-2.8646005	carried out	-1.0786603e-08
-3.121896	, clear	-1.0786603e-08
-3.1294956	increased considerably	-1.0786603e-08
-3.1310861	been concluded	-1.0786603e-08
-1.4738627	account of	-1.0786603e-08
-3.1310861	been reached	-1.0786603e-08
-1.3391701	us ,	-1.0786603e-08
-3.0921511	the action	-1.0786603e-08
-3.1294907	this issue	-1.0786603e-08
-3.1310861	been mentioned	-1.0786603e-08
-1.6076528	out to	-1.0786603e-08
-1.473865	six of	-1.0786603e-08
-3.1307916	that research	-1.0786603e-08
-3.1323822	that 50	-1.0786603e-08
-3.1294956	very correctly	-1.0786603e-08
-3.1294956	about Rule	-1.0786603e-08
-1.8692189	is that	-1.0786603e-08
-3.1310861	Rule 143	-1.0786603e-08
-3.1310861	143 concerning	-1.0786603e-08
-3.1294955	discontent over	-1.0786603e-08
-3.1310861	concerning inadmissibility	-1.0786603e-08
-1.4899034	inadmissibility .	-1.0786603e-08
-1.6076527	relates to	-1.0786603e-08
-1.6294533	concern the	-1.0786603e-08
-2.413132	point has	-1.0786603e-08
-3.1312721	to something	-1.0786603e-08
-1.8692123	something that	-1.0786603e-08
-3.1192355	will come	-1.0786603e-08
-1.6294533	explain the	-1.0786603e-08
-3.1294956	an end	-1.0786603e-08
-3.1458075	on Thursday	-1.0786603e-08
-1.6765131	Thursday and	-1.0786603e-08
-3.1304424	the diversity	-1.5460052e-05
-3.1194363	the Conference	-0.00030312192
-2.4511311	work as	-1.0786603e-08
-2.801792	which I	-1.0786603e-08
-3.0918002	will then	-1.0786603e-08
-3.1294955	though technical	-1.0786603e-08
-1.8567863	be in	-1.0786603e-08
-1.9990053	give a	-1.0786603e-08
-3.1310861	cause unnecessary	-1.0786603e-08
-3.1186384	been adopted	-1.0786603e-08
-3.1310861	been proposed	-1.0786603e-08
-3.1310861	been laid	-1.0786603e-08
-3.1294955	occurred over	-1.0786603e-08
-2.3774578	agreed by	-1.0786603e-08
-1.473865	also of	-1.0786603e-08
-2.5350714	what we	-1.0786603e-08
-3.1310861	relatively modest	-1.0786603e-08
-1.4899034	transparent .	-1.0786603e-08
-2.413132	consistent with	-1.0786603e-08
-3.1186546	has adopted	-1.0786603e-08
-3.1310861	can never	-1.0786603e-08
-1.8567863	held in	-1.0786603e-08
-3.1310861	no longer	-1.0786603e-08
-1.6294533	outside the	-1.0786603e-08
-2.9286204	it should	-1.0786603e-08
-3.1310872	is seasonal	-1.0786603e-08
-3.1320803	and packaging	-1.0786603e-08
-3.1294956	us :	-1.0786603e-08
-2.8646005	she be	-1.0786603e-08
-1.4899034	again .	-1.0786603e-08
-2.684601	States would	-1.0786603e-08
-1.6294533	form the	-1.0786603e-08
-3.1310861	substantial sums	-1.0786603e-08
-2.7427932	have very	-1.0786603e-08
-3.1294955	bodies regarding	-1.0786603e-08
-1.3391701	organisations ,	-1.0786603e-08
-1.3391701	efforts ,	-1.0786603e-08
-1.3391701	standards ,	-1.0786603e-08
-3.1320341	the basis	-1.0786603e-08
-1.473865	basis of	-1.0786603e-08
-1.6294533	protect the	-1.0786603e-08
-3.1310861	Barents Sea	-1.0786603e-08
-2.8646005	decision %-%	-1.0786603e-08
-1.473865	verification of	-1.0786603e-08
-2.3774579	report by	-1.0786603e-08
-1.8692181	belief that	-1.0786603e-08
-2.282321	process which	-1.0786603e-08
-3.1310861	priority objective	-1.0786603e-08
-3.1186458	a position	-1.0786603e-08
-2.9909301	principle no	-1.0786603e-08
-3.131342	I cannot	-1.0786603e-08
-2.6843302	we would	-1.0310236e-05
-3.1310936	a member	-1.0786603e-08
-2.4144281	that has	-1.0786603e-08
-3.1178688	we can	-1.0786603e-08
-2.9286406	we should	-1.0786603e-08
-1.6076527	ready to	-1.0786603e-08
-3.1186427	dangerous considering	-1.0786603e-08
-3.1686258	of significance	-1.0786603e-08
-3.1310861	an obstacle	-1.0786603e-08
-3.1311063	we fully	-1.0786603e-08
-2.9909301	modest but	-1.0786603e-08
-2.8655947	and there	-1.0786603e-08
-3.0470323	one amendment	-1.0786603e-08
-1.9994033	by a	-1.0786603e-08
-3.128116	to ensure	-0.0015499876
-3.1328627	to imagine	-1.0786603e-08
-1.9990053	only a	-1.0786603e-08
-2.0703696	funding for	-1.0786603e-08
-3.1320803	and lacks	-1.0786603e-08
-2.9286242	there been	-1.0786603e-08
-3.1186384	can only	-1.0786603e-08
-2.9909301	there no	-1.0786603e-08
-1.6076527	Commission to	-1.0786603e-08
-2.9286242	Vice -	-1.0786603e-08
-3.1328627	to examine	-1.0786603e-08
-3.1312721	to request	-1.0786603e-08
-3.1310861	draft letter	-1.0786603e-08
-2.8646005	setting out	-1.0786603e-08
-3.1310872	as drawn	-1.0786603e-08
-1.6294526	out the	-1.0786603e-08
-3.1310861	specific date	-1.0786603e-08
-3.1320341	the most	-1.0786603e-08
-3.1294955	most important	-1.0786603e-08
-3.1310861	ad hoc	-1.0786603e-08
-1.6765131	once and	-1.0786603e-08
-2.2539873	Parliament this	-1.0786603e-08
-1.4899018	well .	-1.5460052e-05
-1.6765131	facts and	-1.0786603e-08
-2.8646005	but so	-1.0786603e-08
-3.1195864	the two	-1.0786603e-08
-1.6086469	and to	-1.0786603e-08
-3.1312699	to make	-1.0786603e-08
-3.1186384	's position	-1.0786603e-08
-3.1186384	very clear	-1.0786603e-08
-2.0703696	easier for	-1.0786603e-08
-1.6076527	not to	-1.0786603e-08
-1.6076527	refusing to	-1.0786603e-08
-1.3391692	programme ,	-1.0786603e-08
-3.1310861	%- 20ºC	-1.0786603e-08
-3.1328627	to Amendments	-1.0786603e-08
-3.1294956	amendments put	-1.0786603e-08
-2.413132	amendments has	-1.0786603e-08
-3.0912031	excellent report	-1.0786603e-08
-2.413132	Council has	-1.0786603e-08
-3.1310872	as expressed	-1.0786603e-08
-2.9286242	tell us	-1.0786603e-08
-2.9909301	hasten these	-1.0786603e-08
-3.1320341	the resolutions	-1.0786603e-08
-3.1310861	be terrible	-1.0786603e-08
-3.0470323	be more	-1.0786603e-08
-2.7414733	a very	-1.0786603e-08
-1.3391701	uniform ,	-1.0786603e-08
-1.3391701	adopted ,	-1.0786603e-08
-1.4899034	submitted .	-1.0786603e-08
-1.8692181	transpired that	-1.0786603e-08
-1.8692181	important that	-1.0786603e-08
-2.3774578	supported by	-1.0786603e-08
-1.6076527	hard to	-1.0786603e-08
-3.1186384	sadly only	-1.0786603e-08
-3.1310861	absolutely disgraceful	-1.0786603e-08
-1.4899034	be .	-1.0786603e-08
-2.3122376	clarify it	-1.0786603e-08
-1.8692181	clear that	-1.0786603e-08
-3.0479804	the minimum	-1.0786603e-08
-3.0488089	to safety	-1.0786603e-08
-3.1310861	prolongs transitional	-1.0786603e-08
-2.3791809	to have	-1.0786603e-08
-2.8663771	to also	-1.0786603e-08
-3.1345342	for educated	-1.0786603e-08
-2.4511311	clear as	-1.0786603e-08
-3.1186035	our committee	-1.0786603e-08
-3.1310862	President Prodi	-1.0786603e-08
-2.4511311	far as	-1.0786603e-08
-3.1328627	to public	-1.0786603e-08
-2.8646005	going out	-1.0786603e-08
-2.1316693	Russia is	-1.0786603e-08
-1.4899034	concerned .	-1.0786603e-08
-3.1320341	the basic	-1.0786603e-08
-1.3391701	Commissioner ,	-1.0786603e-08
-2.1316693	she is	-1.0786603e-08
-1.9990053	made a	-1.0786603e-08
-3.1328627	to compliment	-1.0786603e-08
-3.0474922	with minimum	-1.0786603e-08
-1.6765131	word and	-1.0786603e-08
-3.1310862	our offices	-1.0786603e-08
-3.1311024	has indeed	-1.0786603e-08
-3.0912031	over today	-1.0786603e-08
-1.9990053	are a	-1.0786603e-08
-2.5815275	workers are	-1.0786603e-08
-3.1294955	indeed increased	-1.0786603e-08
-1.4899034	considerably .	-1.0786603e-08
-3.1320803	and country	-1.0786603e-08
-1.8692181	than that	-1.0786603e-08
-3.1295157	we support	-1.0786603e-08
-3.0912031	more ask	-1.0786603e-08
-2.3122376	into it	-1.0786603e-08
-3.1304436	the four	-1.0786603e-08
-1.3391701	thus ,	-1.0786603e-08
-1.4899034	sums .	-1.0786603e-08
-3.1311063	we get	-1.0786603e-08
-2.1316693	everything is	-1.0786603e-08
-1.6765131	tanks and	-1.0786603e-08
-3.1324116	have liked	-1.0786603e-08
-3.1307916	that those	-1.0786603e-08
-2.3774578	finally have	-1.0786603e-08
-3.1328627	to remember	-1.0786603e-08
-3.1310936	a degree	-1.0786603e-08
-1.4899034	set .	-1.0786603e-08
-1.6076527	referred to	-1.0786603e-08
-3.1312721	to find	-1.0786603e-08
-3.1294956	therefore look	-1.0786603e-08
-3.129424	pay particular	-1.5460052e-05
-1.6076527	proceed to	-1.0786603e-08
-1.6294533	accept the	-1.0786603e-08
-3.1310936	a Dutch	-1.0786603e-08
-3.1294956	concerned here	-1.0786603e-08
-1.6076496	prepared to	-1.0786603e-08
-1.9990053	introducing a	-1.0786603e-08
-3.1310861	now obtaining	-1.0786603e-08
-3.1294955	urging them	-1.0786603e-08
-1.6765131	legislation and	-1.0786603e-08
-3.1294956	be working	-1.0786603e-08
-3.0470323	resolve all	-1.0786603e-08
-3.1310861	agreed upon	-1.0786603e-08
-2.8646005	find out	-1.0786603e-08
-3.0912031	only hope	-1.0786603e-08
-3.0912031	never take	-1.0786603e-08
-2.4511329	it as	-1.0786603e-08
-1.3391701	do ,	-1.0786603e-08
-2.3135337	that it	-1.0786603e-08
-3.1331333	in October	-1.0786603e-08
-3.132033	the establishment	-1.5460052e-05
-3.0497807	rural areas	-7.7353505e-06
-3.1310861	Dutch channel	-1.0786603e-08
-3.1320341	the deficiencies	-1.0786603e-08
-3.1186458	a positive	-1.0786603e-08
-3.1320803	and Safety	-1.0786603e-08
-3.0470323	instructions ?	-1.0786603e-08
-3.1310861	was received	-1.0786603e-08
-3.0470702	from safety	-1.0786603e-08
-1.3391701	applicable ,	-1.0786603e-08
-3.1294955	Safety Committee	-1.0786603e-08
-3.1310861	meeting since	-1.0786603e-08
-3.1310861	Regional Policy	-1.0786603e-08
-1.6765131	Employment and	-1.0786603e-08
-3.1310861	since 1998	-1.0786603e-08
-3.1294955	13rd January	-1.0786603e-08
-3.0470323	1998 ?	-1.0786603e-08
-3.1310861	good deal	-1.0786603e-08
-2.4511311	simple as	-1.0786603e-08
-3.1310861	- time	-1.0786603e-08
-3.1310861	no fire	-1.0786603e-08
-2.413132	here with	-1.0786603e-08
-3.1310861	longer applicable	-1.0786603e-08
-3.1294955	delivered correctly	-1.0786603e-08
-3.120415	to come	-1.0786603e-08
-3.129503	a flexibility	-1.0786603e-08
-3.1294955	obtaining common	-1.0786603e-08
-3.1314841	by cold	-1.0786603e-08
-1.6076527	them to	-1.0786603e-08
-1.4899034	employment .	-1.0786603e-08
-3.1310861	be somewhat	-1.0786603e-08
-1.8692181	disgraceful that	-1.0786603e-08
-3.1311063	we pass	-1.0786603e-08
-3.0480265	and do	-1.0786603e-08
-3.1294955	20 degrees	-1.0786603e-08
-1.6294533	renew the	-1.0786603e-08
-3.0912031	yet another	-1.0786603e-08
-1.4899034	concluded .	-1.0786603e-08
-3.1186458	a specific	-1.0786603e-08
-2.3140142	to it	-1.0786603e-08
-2.2539857	whether this	-1.0786603e-08
-3.120415	to present	-1.0786603e-08
-3.1310881	you asking	-1.0786603e-08
-2.0703696	correctly for	-1.0786603e-08
-3.1294974	it ourselves	-1.0786603e-08
-3.129503	a year	-1.0786603e-08
-2.9941866	, at	-1.0786603e-08
-1.8567863	vote in	-1.0786603e-08
-1.473865	dawn of	-1.0786603e-08
-1.6765131	reading and	-1.0786603e-08
-1.473865	meeting of	-1.0786603e-08
-3.0470323	p.m. </s>
-3.0921511	the matter	-1.0786603e-08
-1.9994652	with a	-1.0786603e-08
-2.8638008	to be	-1.0786603e-08
-3.1310879	it properly	-1.0786603e-08
-1.6076527	properly to	-1.0786603e-08
-3.1310862	between 1st	-1.0786603e-08
-3.1315427	in tomorrow	-1.0786603e-08
-2.3122386	as it	-1.0786603e-08
-3.1312721	to know	-1.0786603e-08
-3.1328627	to conclude	-1.0786603e-08
-3.1294955	pulled off	-1.0786603e-08
-3.1294956	working towards	-1.0786603e-08
-2.8646005	retained so	-1.0786603e-08
-1.489905	it .	-1.5460052e-05
-1.473865	all of	-1.0786603e-08
-3.1304436	the research	-1.0786603e-08
-2.684601	there will	-1.0786603e-08
-3.1310867	this information	-1.0786603e-08
-3.1294955	public opinion	-1.0786603e-08
-2.8017008	out from	-1.0786603e-08
-2.7415056	from Parliament	-1.0786603e-08
-3.1310862	our discontent	-1.0786603e-08
-3.1311774	which originated	-1.0786603e-08
-3.1295982	would she	-1.0786603e-08
-2.7414678	decision not	-1.0786603e-08
-3.1310861	decision refusing	-1.0786603e-08
-3.1320341	the state	-1.0786603e-08
-3.1328605	to renew	-1.5460052e-05
-3.1294955	arms embargo	-1.0786603e-08
-2.1316693	embargo is	-1.0786603e-08
-3.144217	on Indonesia	-1.0786603e-08
-3.1315427	in Indonesia	-1.0786603e-08
-1.3391701	Indonesia ,	-1.0786603e-08
-1.8567863	Indonesia in	-1.0786603e-08
-3.0470323	extremely dangerous	-1.0786603e-08
-1.8692181	considering that	-1.0786603e-08
-3.1320341	the past	-1.0786603e-08
-2.8646005	situation there	-1.0786603e-08
-3.1320341	the vast	-1.0786603e-08
-2.7414661	this Parliament	-1.0786603e-08
-1.6294533	considering the	-1.0786603e-08
-3.1320803	and b)	-1.0786603e-08
-3.1298936	by road	-1.0786603e-08
-1.6076527	continued to	-1.0786603e-08
-3.1310861	within strictly	-1.0786603e-08
-1.6294533	under the	-1.0786603e-08
-2.7414678	are not	-1.0786603e-08
-1.4899034	carefully .	-1.0786603e-08
-3.0470323	removed because	-1.0786603e-08
-3.1320341	the verification	-1.0786603e-08
-3.0921501	the report	-1.0786603e-08
-3.1304436	the final	-1.0786603e-08
-3.1310872	is intended	-1.0786603e-08
-3.1304436	the draft	-1.0786603e-08
-2.9909301	because at	-1.0786603e-08
-3.0912031	drawn up	-1.0786603e-08
-1.473865	failure of	-1.0786603e-08
-3.1310861	committee relate	-1.0786603e-08
-1.473865	committee of	-1.0786603e-08
-3.1310861	two organisations	-1.0786603e-08
-1.4899034	committee .	-1.0786603e-08
-1.9990053	setting a	-1.0786603e-08
-3.1327532	, rail	-1.0786603e-08
-1.3391701	deadlines ,	-1.0786603e-08
-2.0137267	on a	-1.0786603e-08
-1.6765131	universities and	-1.0786603e-08
-1.3391701	Presidents ,	-1.0786603e-08
-2.9909301	Presidents no	-1.0786603e-08
-2.9909301	Presidents at	-1.0786603e-08
-3.1310861	used simply	-1.0786603e-08
-3.1199345	that Conference	-1.0786603e-08
-3.1294956	vote was	-1.0786603e-08
-3.1294956	its meeting	-1.0786603e-08
-3.1702164	of 13rd	-1.0786603e-08
-2.0703696	objectives for	-1.0786603e-08
-1.6294533	position the	-1.0786603e-08
-1.6076527	pursuant to	-1.0786603e-08
-3.1312721	to Rule	-1.0786603e-08
-3.1310861	Rule 110	-1.0786603e-08
-3.1320341	the Rules	-1.0786603e-08
-1.4899034	Procedure .	-1.0786603e-08
-3.1310861	very powerful	-1.0786603e-08
-3.1294956	been retained	-1.0786603e-08
-2.9909301	forward at	-1.0786603e-08
-3.1196325	and adopted	-1.0786603e-08
-3.1320341	the frost	-1.0786603e-08
-3.1328627	to Monday	-1.0786603e-08
-1.6765131	Monday and	-1.0786603e-08
-1.4899034	Tuesday .	-1.0786603e-08
-3.1320341	the Party	-1.0786603e-08
-2.2539856	propose this	-1.0786603e-08
-3.1310861	also keen	-1.0786603e-08
-2.2574328	for this	-1.0786603e-08
-3.1294956	European Socialists	-1.0786603e-08
-3.1297514	I was	-1.0786603e-08
-2.0003014	that a	-1.0786603e-08
-3.0912105	a Commission	-1.0786603e-08
-3.1302897	the Council	-1.0786603e-08
-3.0470324	pay more	-1.0786603e-08
-1.6294533	monitor the	-1.0786603e-08
-1.6294533	debated the	-1.0786603e-08
-3.1310861	not ready	-1.0786603e-08
-3.0912031	legislative programme	-1.0786603e-08
-1.6076528	proposal to	-1.0786603e-08
-3.1310861	proposal %-	-1.0786603e-08
-3.0470324	at ?	-1.0786603e-08
-3.1310861	be included	-1.0786603e-08
-1.6765131	cooperate and	-1.0786603e-08
-3.1294956	its opinion	-1.0786603e-08
-3.1307916	that Structural	-1.0786603e-08
-2.1771542	included on	-1.0786603e-08
-3.1310861	its strategic	-1.0786603e-08
-3.130821	have set	-1.0786603e-08
-3.1310861	next five	-1.0786603e-08
-2.3122376	proposal it	-1.0786603e-08
-3.1294955	aptitude examination	-1.0786603e-08
-3.1294955	166 votes	-1.0786603e-08
-3.1310861	very brief	-1.0786603e-08
-1.4899034	matter .	-1.0786603e-08
-1.4899034	legislature .	-1.0786603e-08
-3.1310861	exceptionally accurate	-1.0786603e-08
-2.1349063	, is	-1.0786603e-08
-1.8567863	advisers in	-1.0786603e-08
-3.1294956	or regard	-1.0786603e-08
-2.8646005	carrying out	-1.0786603e-08
-2.413132	transparency has	-1.0786603e-08
-2.9909301	carrying these	-1.0786603e-08
-1.6076528	people to	-1.0786603e-08
-3.1294956	energy resources	-1.0786603e-08
-1.4899034	society .	-1.0786603e-08
-2.1781483	and on	-1.0786603e-08
-3.1345342	for example	-1.0786603e-08
-3.1327532	, next	-1.0786603e-08
-3.1294955	last week	-1.0786603e-08
-1.4899034	proved .	-1.0786603e-08
-2.282321	%-% which	-1.0786603e-08
-3.0921972	and Commission	-1.0786603e-08
-2.9286242	week if	-1.0786603e-08
-3.1310861	originated outside	-1.0786603e-08
-3.1294956	are prepared	-1.0786603e-08
-2.413132	us with	-1.0786603e-08
-2.9296183	and work	-1.0786603e-08
-3.1186384	Fund coordination	-1.0786603e-08
-1.6076527	simply to	-1.0786603e-08
-2.9913281	by these	-1.0786603e-08
-3.1328627	to corroborate	-1.0786603e-08
-1.6765131	corroborate and	-1.0786603e-08
-3.1310861	ratify decisions	-1.0786603e-08
-3.1310861	taken elsewhere	-1.0786603e-08
-2.8646005	elsewhere %-%	-1.0786603e-08
-1.8567863	consideration in	-1.0786603e-08
-3.1186384	%-% present	-1.0786603e-08
-3.1304436	the agenda	-1.0786603e-08
-3.0861608	of our	-1.0786603e-08
-2.9286242	present us	-1.0786603e-08
-2.282321	challenges which	-1.0786603e-08
-3.1294956	lower temperatures	-1.0786603e-08
-2.6846893	which would	-1.0786603e-08
-3.1310861	incorporate differentiating	-1.0786603e-08
-3.1320341	the belief	-1.0786603e-08
-1.6294533	what the	-1.0786603e-08
-3.1310936	a dilemma	-1.0786603e-08
-1.9990053	maintaining a	-1.0786603e-08
-2.413132	Commission with	-1.0786603e-08
-2.5350714	objectives we	-1.0786603e-08
-2.1771542	Council on	-1.0786603e-08
-1.473865	harmonisation of	-1.0786603e-08
-3.1294955	same difficulties	-1.0786603e-08
-1.4899034	dilemma .	-1.0786603e-08
-3.1129884	minimum standards	-1.0786603e-08
-2.0703696	votes for	-1.0786603e-08
-1.4899034	requirements .	-1.0786603e-08
-3.1310905	dangerous cargo	-1.0786603e-08
-2.9303994	to Mr	-1.0786603e-08
-3.1328627	to improving	-1.0786603e-08
-3.1328605	to agriculture	-1.0786603e-08
-3.1328627	to opening	-1.0786603e-08
-2.5828236	that are	-1.0786603e-08
-1.6294533	either the	-1.0786603e-08
-2.1316693	Commission is	-1.0786603e-08
-2.2539856	present this	-1.0786603e-08
-1.3391701	2000 ,	-1.0786603e-08
-3.1310861	be grateful	-1.0786603e-08
-3.1310883	should clarify	-1.0786603e-08
-3.131546	with 164	-1.0786603e-08
-2.1771542	opinion on	-1.0786603e-08
-3.0912031	particularly after	-1.0786603e-08
-2.0703696	support for	-1.0786603e-08
-3.1294955	times already	-1.0786603e-08
-3.1297514	I accept	-1.0786603e-08
-3.1294956	take place	-1.0786603e-08
-2.8017007	received from	-1.0786603e-08
-2.8647032	would also	-1.0786603e-08
-2.9286242	PPE -	-1.0786603e-08
-3.1294955	40 degrees	-1.0786603e-08
-3.1295982	would give	-1.0786603e-08
-2.3774578	accepted by	-1.0786603e-08
-1.4899034	reservations .	-1.0786603e-08
-3.1331333	in Japan	-1.0786603e-08
-3.1294967	is enforcement	-1.0786603e-08
-1.3391701	significance ,	-1.0786603e-08
-3.1315427	in fact	-1.0786603e-08
-2.413132	Japan has	-1.0786603e-08
-2.413132	reached with	-1.0786603e-08
-1.6076527	obstacle to	-1.0786603e-08
-3.0483284	that our	-1.0786603e-08
-3.0924992	that President	-1.0786603e-08
-1.8692181	sign that	-1.0786603e-08
-2.2572433	, this	-1.0786603e-08
-3.1323822	that agreement	-1.0786603e-08
-2.0703696	significance for	-1.0786603e-08
-1.8692181	difficulties that	-1.0786603e-08
-1.3391701	period ,	-1.0786603e-08
-1.473865	amounts of	-1.0786603e-08
-1.6076527	reasons to	-1.0786603e-08
-1.473865	level of	-1.0786603e-08
-3.1310936	a commitment	-1.0786603e-08
-1.6076527	commitment to	-1.0786603e-08
-3.1186122	these two	-1.0786603e-08
-3.0470324	new debate	-1.0786603e-08
-3.1311024	has reminded	-1.0786603e-08
-2.9286242	reminded us	-1.0786603e-08
-3.1304424	the need	-1.0786603e-08
-3.1320341	the annual	-1.0786603e-08
-3.1303333	of action	-1.0786603e-08
-2.0703696	action for	-1.0786603e-08
-1.6294533	given the	-1.0786603e-08
-3.1294955	almost four	-1.0786603e-08
-3.0921511	the part	-1.0786603e-08
-3.0912031	then Member	-1.0786603e-08
-2.1316693	safety is	-1.0786603e-08
-1.8692168	proposal that	-1.0786603e-08
-3.1310861	action plan	-1.0786603e-08
-1.3391701	decides ,	-1.0786603e-08
-1.6076527	comes to	-1.0786603e-08
-2.9286242	they should	-1.0786603e-08
-3.1310861	were planning	-1.0786603e-08
-2.2539856	%-% this	-1.0786603e-08
-3.0920102	the Member	-0.00030312192
-1.6765131	come and	-1.0786603e-08
-1.6294533	inform the	-1.0786603e-08
-1.473865	state of	-1.0786603e-08
-3.1327517	, however	-1.5460052e-05
-3.1294955	fully agreed	-1.0786603e-08
-3.1186384	negotiations between	-1.0786603e-08
-1.4899034	upon .	-1.0786603e-08
-3.1302897	the Committee	-0.00030312192
-1.6076527	wishes to	-1.0786603e-08
-3.1294955	seeking employment	-1.0786603e-08
-3.1331333	in undeveloped	-1.0786603e-08
-2.1771542	speak on	-1.0786603e-08
-3.0912036	this Group	-1.0786603e-08
-3.1310936	a ripple	-1.0786603e-08
-2.9913899	with these	-1.0786603e-08
-2.8646005	hope %-%	-1.0786603e-08
-2.0703696	take for	-1.0786603e-08
-3.1294956	considerably lower	-1.0786603e-08
-1.473865	ripple of	-1.0786603e-08
-2.8017007	laughter from	-1.0786603e-08
-3.1304436	the Socialists	-1.0786603e-08
-3.1323822	that large	-1.0786603e-08
-3.1310861	large sections	-1.0786603e-08
-3.1320341	the Socialist	-1.0786603e-08
-2.8646005	were also	-1.0786603e-08
-2.0703696	responsible for	-1.0786603e-08
-2.2553111	have this	-1.0786603e-08
-1.3391701	agenda ,	-1.0786603e-08
-3.1294956	road instead	-1.0786603e-08
-3.1311024	has addressed	-1.0786603e-08
-3.1331333	in Sweden	-1.0786603e-08
-3.1304436	the working	-1.0786603e-08
-3.1702164	of Members	-1.0786603e-08
-3.1294956	increased flexibility	-1.0786603e-08
-1.473865	Members of	-1.0786603e-08
-3.1294967	is magnificent	-1.0786603e-08
-3.0912036	this matter	-1.0786603e-08
-2.1316693	EU is	-1.0786603e-08
-2.1316693	information is	-1.0786603e-08
-1.3391701	correct ,	-1.0786603e-08
-1.6294534	but the	-1.0786603e-08
-3.0912031	DE Group	-1.0786603e-08
-1.3392727	would ,	-1.0786603e-08
-2.4131337	Parliament has	-1.0786603e-08
-3.1310861	issue several	-1.0786603e-08
-1.4899034	already .	-1.0786603e-08
-3.1294955	mentioned :	-1.0786603e-08
-1.6294533	amend the	-1.0786603e-08
